{"learner":{"attributes":{"scikit_learn":"{\"_estimator_type\": \"classifier\"}"},"feature_names":["medhhinc","povall","civilian_labor_force","employed","unemployed","unemployment_rate","med_hh_income_percent_of_state_total","total_population","total_population_norm","priority_index","type_Biological","type_Fire","type_Flood","type_Hurricane","type_Severe Storm","type_Straight-Line Winds","type_Tornado","type_Winter Storm"],"feature_types":["float","float","float","float","float","float","float","float","float","float","i","i","i","i","i","i","i","i"],"gradient_booster":{"model":{"cats":{"enc":[],"feature_segments":[],"sorted_idx":[]},"gbtree_model_param":{"num_parallel_tree":"1","num_trees":"100"},"iteration_indptr":[0,1,2,3,4,5,6,7,8,9,10,11,12,13,14,15,16,17,18,19,20,21,22,23,24,25,26,27,28,29,30,31,32,33,34,35,36,37,38,39,40,41,42,43,44,45,46,47,48,49,50,51,52,53,54,55,56,57,58,59,60,61,62,63,64,65,66,67,68,69,70,71,72,73,74,75,76,77,78,79,80,81,82,83,84,85,86,87,88,89,90,91,92,93,94,95,96,97,98,99,100],"tree_info":[0,0,0,0,0,0,0,0,0,0,0,0,0,0,0,0,0,0,0,0,0,0,0,0,0,0,0,0,0,0,0,0,0,0,0,0,0,0,0,0,0,0,0,0,0,0,0,0,0,0,0,0,0,0,0,0,0,0,0,0,0,0,0,0,0,0,0,0,0,0,0,0,0,0,0,0,0,0,0,0,0,0,0,0,0,0,0,0,0,0,0,0,0,0,0,0,0,0,0,0],"trees":[{"base_weights":[6.236874E-8,1.8159171E0,-9.859805E-2,9.220644E-2,2.2985905E-2],"categories":[],"categories_nodes":[],"categories_segments":[],"categories_sizes":[],"default_left":[0,0,0,0,0],"id":0,"left_children":[1,3,-1,-1,-1],"loss_changes":[4.7584674E2,1.7990723E0,0E0,0E0,0E0],"parents":[2147483647,0,0,1,1],"right_children":[2,4,-1,-1,-1],"split_conditions":[1E0,3.694E2,-9.859805E-2,9.220644E-2,2.2985905E-2],"split_indices":[11,6,0,0,0],"split_type":[0,0,0,0,0],"sum_hessian":[1.3088403E2,6.817914E1,6.27049E1,6.643733E1,1.7418027E0],"tree_param":{"num_deleted":"0","num_feature":"18","num_nodes":"5","size_leaf_vector":"1"}},{"base_weights":[4.2630217E-4,1.741225E0,-9.33349E-2,8.841237E-2,2.2280496E-2],"categories":[],"categories_nodes":[],"categories_segments":[],"categories_sizes":[],"default_left":[0,0,0,0,0],"id":1,"left_children":[1,3,-1,-1,-1],"loss_changes":[4.309742E2,1.6144104E0,0E0,0E0,0E0],"parents":[2147483647,0,0,1,1],"right_children":[2,4,-1,-1,-1],"split_conditions":[1E0,3.694E2,-9.33349E-2,8.841237E-2,2.2280496E-2],"split_indices":[11,6,0,0,0],"split_type":[0,0,0,0,0],"sum_hessian":[1.305957E2,6.761904E1,6.297666E1,6.588021E1,1.7388362E0],"tree_param":{"num_deleted":"0","num_feature":"18","num_nodes":"5","size_leaf_vector":"1"}},{"base_weights":[8.005605E-4,1.6755501E0,-8.87736E-2,8.50834E-2,2.1599954E-2],"categories":[],"categories_nodes":[],"categories_segments":[],"categories_sizes":[],"default_left":[0,0,0,0,0],"id":2,"left_children":[1,3,-1,-1,-1],"loss_changes":[3.9202563E2,1.4679108E0,0E0,0E0,0E0],"parents":[2147483647,0,0,1,1],"right_children":[2,4,-1,-1,-1],"split_conditions":[1E0,3.694E2,-8.87736E-2,8.50834E-2,2.1599954E-2],"split_indices":[11,6,0,0,0],"split_type":[0,0,0,0,0],"sum_hessian":[1.2978165E2,6.682899E1,6.2952667E1,6.509345E1,1.7355307E0],"tree_param":{"num_deleted":"0","num_feature":"18","num_nodes":"5","size_leaf_vector":"1"}},{"base_weights":[1.1358518E-3,1.6173774E0,-8.477889E-2,8.214116E-2,2.0943057E-2],"categories":[],"categories_nodes":[],"categories_segments":[],"categories_sizes":[],"default_left":[0,0,0,0,0],"id":3,"left_children":[1,3,-1,-1,-1],"loss_changes":[3.5793124E2,1.3504944E0,0E0,0E0,0E0],"parents":[2147483647,0,0,1,1],"right_children":[2,4,-1,-1,-1],"split_conditions":[1E0,3.694E2,-8.477889E-2,8.214116E-2,2.0943057E-2],"split_indices":[11,6,0,0,0],"split_type":[0,0,0,0,0],"sum_hessian":[1.2852228E2,6.5846E1,6.2676285E1,6.4114075E1,1.731925E0],"tree_param":{"num_deleted":"0","num_feature":"18","num_nodes":"5","size_leaf_vector":"1"}},{"base_weights":[1.4420032E-3,1.5655118E0,-8.124778E-2,7.952392E-2,2.0308709E-2],"categories":[],"categories_nodes":[],"categories_segments":[],"categories_sizes":[],"default_left":[0,0,0,0,0],"id":4,"left_children":[1,3,-1,-1,-1],"loss_changes":[3.2786554E2,1.2557373E0,0E0,0E0,0E0],"parents":[2147483647,0,0,1,1],"right_children":[2,4,-1,-1,-1],"split_conditions":[1E0,3.694E2,-8.124778E-2,7.952392E-2,2.0308709E-2],"split_indices":[11,6,0,0,0],"split_type":[0,0,0,0,0],"sum_hessian":[1.268881E2,6.470255E1,6.2185547E1,6.29745E1,1.7280554E0],"tree_param":{"num_deleted":"0","num_feature":"18","num_nodes":"5","size_leaf_vector":"1"}},{"base_weights":[1.7255928E-3,1.5189971E0,-7.810061E-2,7.718238E-2,1.9695854E-2],"categories":[],"categories_nodes":[],"categories_segments":[],"categories_sizes":[],"default_left":[0,0,0,0,0],"id":5,"left_children":[1,3,-1,-1,-1],"loss_changes":[3.0118185E2,1.1787567E0,0E0,0E0,0E0],"parents":[2147483647,0,0,1,1],"right_children":[2,4,-1,-1,-1],"split_conditions":[1E0,3.694E2,-7.810061E-2,7.718238E-2,1.9695854E-2],"split_indices":[11,6,0,0,0],"split_type":[0,0,0,0,0],"sum_hessian":[1.2494088E2,6.342711E1,6.151377E1,6.170315E1,1.7239544E0],"tree_param":{"num_deleted":"0","num_feature":"18","num_nodes":"5","size_leaf_vector":"1"}},{"base_weights":[1.9925083E-3,1.4770592E0,-7.527452E-2,7.5076714E-2,1.9103518E-2],"categories":[],"categories_nodes":[],"categories_segments":[],"categories_sizes":[],"default_left":[0,0,0,0,0],"id":6,"left_children":[1,3,-1,-1,-1],"loss_changes":[2.773651E2,1.1158752E0,0E0,0E0,0E0],"parents":[2147483647,0,0,1,1],"right_children":[2,4,-1,-1,-1],"split_conditions":[1E0,3.694E2,-7.527452E-2,7.5076714E-2,1.9103518E-2],"split_indices":[11,6,0,0,0],"split_type":[0,0,0,0,0],"sum_hessian":[1.22734825E2,6.2044586E1,6.0690235E1,6.0324936E1,1.7196528E0],"tree_param":{"num_deleted":"0","num_feature":"18","num_nodes":"5","size_leaf_vector":"1"}},{"base_weights":[2.2468313E-3,1.4390645E0,-7.271943E-2,7.317435E-2,1.8530818E-2],"categories":[],"categories_nodes":[],"categories_segments":[],"categories_sizes":[],"default_left":[0,0,0,0,0],"id":7,"left_children":[1,3,-1,-1,-1],"loss_changes":[2.5600055E2,1.0643921E0,0E0,0E0,0E0],"parents":[2147483647,0,0,1,1],"right_children":[2,4,-1,-1,-1],"split_conditions":[1E0,3.694E2,-7.271943E-2,7.317435E-2,1.8530818E-2],"split_indices":[11,6,0,0,0],"split_type":[0,0,0,0,0],"sum_hessian":[1.20317406E2,6.0576813E1,5.974059E1,5.8861633E1,1.7151786E0],"tree_param":{"num_deleted":"0","num_feature":"18","num_nodes":"5","size_leaf_vector":"1"}},{"base_weights":[2.4916413E-3,1.4044883E0,-7.039482E-2,7.1448356E-2,1.7976906E-2],"categories":[],"categories_nodes":[],"categories_segments":[],"categories_sizes":[],"default_left":[0,0,0,0,0],"id":8,"left_children":[1,3,-1,-1,-1],"loss_changes":[2.3674973E2,1.0220871E0,0E0,0E0,0E0],"parents":[2147483647,0,0,1,1],"right_children":[2,4,-1,-1,-1],"split_conditions":[1E0,3.694E2,-7.039482E-2,7.1448356E-2,1.7976906E-2],"split_indices":[11,6,0,0,0],"split_type":[0,0,0,0,0],"sum_hessian":[1.1773023E2,5.9042854E1,5.868738E1,5.7332294E1,1.7105572E0],"tree_param":{"num_deleted":"0","num_feature":"18","num_nodes":"5","size_leaf_vector":"1"}},{"base_weights":[2.7298657E-3,1.3728932E0,-6.8267524E-2,6.987635E-2,1.7440973E-2],"categories":[],"categories_nodes":[],"categories_segments":[],"categories_sizes":[],"default_left":[0,0,0,0,0],"id":9,"left_children":[1,3,-1,-1,-1],"loss_changes":[2.1933385E2,9.872589E-1,0E0,0E0,0E0],"parents":[2147483647,0,0,1,1],"right_children":[2,4,-1,-1,-1],"split_conditions":[1E0,3.694E2,-6.8267524E-2,6.987635E-2,1.7440973E-2],"split_indices":[11,6,0,0,0],"split_type":[0,0,0,0,0],"sum_hessian":[1.1500967E2,5.745933E1,5.7550335E1,5.575352E1,1.7058122E0],"tree_param":{"num_deleted":"0","num_feature":"18","num_nodes":"5","size_leaf_vector":"1"}},{"base_weights":[2.9632354E-3,1.3439105E0,-6.6310175E-2,6.843947E-2,1.6922308E-2],"categories":[],"categories_nodes":[],"categories_segments":[],"categories_sizes":[],"default_left":[0,0,0,0,0],"id":10,"left_children":[1,3,-1,-1,-1],"loss_changes":[2.0352113E2,9.586029E-1,0E0,0E0,0E0],"parents":[2147483647,0,0,1,1],"right_children":[2,4,-1,-1,-1],"split_conditions":[1E0,3.694E2,-6.6310175E-2,6.843947E-2,1.6922308E-2],"split_indices":[11,6,0,0,0],"split_type":[0,0,0,0,0],"sum_hessian":[1.12187485E2,5.5840733E1,5.634675E1,5.4139767E1,1.7009654E0],"tree_param":{"num_deleted":"0","num_feature":"18","num_nodes":"5","size_leaf_vector":"1"}},{"base_weights":[3.1940674E-3,1.3172284E0,-1.2899988E0,6.712179E-2,1.6420191E-2,-6.6430813E-1,-6.581355E-2,-5.0664164E-2,9.2148185E-3],"categories":[],"categories_nodes":[],"categories_segments":[],"categories_sizes":[],"default_left":[0,0,0,0,0,0,0,0,0],"id":11,"left_children":[1,3,5,-1,-1,7,-1,-1,-1],"loss_changes":[1.8911731E2,9.350128E-1,4.763794E-2,0E0,0E0,1.4540149E0,0E0,0E0,0E0],"parents":[2147483647,0,0,1,1,2,2,5,5],"right_children":[2,4,6,-1,-1,8,-1,-1,-1],"split_conditions":[1E0,3.694E2,5.1827E4,6.712179E-2,1.6420191E-2,5.0908E4,-6.581355E-2,-5.0664164E-2,9.2148185E-3],"split_indices":[11,6,0,0,0,0,0,0,0],"split_type":[0,0,0,0,0,0,0,0,0],"sum_hessian":[1.0929137E2,5.419964E1,5.5091724E1,5.2503605E1,1.6960361E0,3.2792695E0,5.1812458E1,2.1861796E0,1.0930898E0],"tree_param":{"num_deleted":"0","num_feature":"18","num_nodes":"9","size_leaf_vector":"1"}},{"base_weights":[3.0227702E-3,1.2925797E0,-1.2567916E0,6.5909676E-2,1.5933974E-2,-6.4653844E-1,-6.413135E-2,9.62162E-3,-4.9828976E-2],"categories":[],"categories_nodes":[],"categories_segments":[],"categories_sizes":[],"default_left":[0,0,0,0,0,0,0,0,0],"id":12,"left_children":[1,3,5,-1,-1,7,-1,-1,-1],"loss_changes":[1.7604248E2,9.156647E-1,3.4934998E-2,0E0,0E0,1.4377563E0,0E0,0E0,0E0],"parents":[2147483647,0,0,1,1,2,2,5,5],"right_children":[2,4,6,-1,-1,8,-1,-1,-1],"split_conditions":[1E0,3.694E2,5.1827E4,6.5909676E-2,1.5933974E-2,4.1E0,-6.413135E-2,9.62162E-3,-4.9828976E-2],"split_indices":[11,6,0,0,0,5,0,0,0],"split_type":[0,0,0,0,0,0,0,0,0],"sum_hessian":[1.0636042E2,5.2546925E1,5.381349E1,5.085588E1,1.6910423E0,3.242734E0,5.057076E1,1.0872043E0,2.1555295E0],"tree_param":{"num_deleted":"0","num_feature":"18","num_nodes":"9","size_leaf_vector":"1"}},{"base_weights":[2.8606732E-3,1.2697353E0,-1.2258165E0,6.479149E-2,1.5463042E-2,-6.293956E-1,-6.2565796E-2,9.353766E-3,-4.8770558E-2],"categories":[],"categories_nodes":[],"categories_segments":[],"categories_sizes":[],"default_left":[0,0,0,0,0,0,0,0,0],"id":13,"left_children":[1,3,5,-1,-1,7,-1,-1,-1],"loss_changes":[1.6406271E2,8.9982605E-1,2.6191711E-2,0E0,0E0,1.3706868E0,0E0,0E0,0E0],"parents":[2147483647,0,0,1,1,2,2,5,5],"right_children":[2,4,6,-1,-1,8,-1,-1,-1],"split_conditions":[1E0,3.694E2,5.1827E4,6.479149E-2,1.5463042E-2,4.1E0,-6.2565796E-2,9.353766E-3,-4.8770558E-2],"split_indices":[11,6,0,0,0,5,0,0,0],"split_type":[0,0,0,0,0,0,0,0,0],"sum_hessian":[1.0339955E2,5.0891994E1,5.2507557E1,4.9205994E1,1.6860005E0,3.2058866E0,4.930167E1,1.0909603E0,2.1149263E0],"tree_param":{"num_deleted":"0","num_feature":"18","num_nodes":"9","size_leaf_vector":"1"}},{"base_weights":[2.7029417E-3,1.2484967E0,-1.1968163E0,6.3757144E-2,1.500681E-2,-6.1300266E-1,-1.2220484E0,-4.801593E-2,9.726096E-3,-3.315158E-2,-6.26184E-2],"categories":[],"categories_nodes":[],"categories_segments":[],"categories_sizes":[],"default_left":[0,0,0,0,0,0,1,0,0,0,0],"id":14,"left_children":[1,3,5,-1,-1,7,9,-1,-1,-1,-1],"loss_changes":[1.5306096E2,8.8692474E-1,1.9592285E-2,0E0,0E0,1.3558973E0,3.9672852E-4,0E0,0E0,0E0,0E0],"parents":[2147483647,0,0,1,1,2,2,5,5,6,6],"right_children":[2,4,6,-1,-1,8,10,-1,-1,-1,-1],"split_conditions":[1E0,3.694E2,5.1827E4,6.3757144E-2,1.500681E-2,5.0908E4,6.25E1,-4.801593E-2,9.726096E-3,-3.315158E-2,-6.26184E-2],"split_indices":[11,6,0,0,0,0,6,0,0,0,0],"split_type":[0,0,0,0,0,0,0,0,0,0,0],"sum_hessian":[1.004263E2,4.92429E1,5.1183403E1,4.7561974E1,1.6809255E0,3.1683981E0,4.8015003E1,2.0832014E0,1.0851966E0,3.6467092E0,4.4368294E1],"tree_param":{"num_deleted":"0","num_feature":"18","num_nodes":"11","size_leaf_vector":"1"}},{"base_weights":[2.2036352E-3,1.2286912E0,-1.1698614E0,6.2797874E-2,1.4564742E-2,-5.971565E-1,-1.1949147E0,9.455828E-3,-4.7040667E-2,-3.222818E-2,-6.125591E-2],"categories":[],"categories_nodes":[],"categories_segments":[],"categories_sizes":[],"default_left":[0,0,0,0,0,0,1,0,0,0,0],"id":15,"left_children":[1,3,5,-1,-1,7,9,-1,-1,-1,-1],"loss_changes":[1.4299309E2,8.7649536E-1,1.6273499E-2,0E0,0E0,1.294117E0,3.7994385E-3,0E0,0E0,0E0,0E0],"parents":[2147483647,0,0,1,1,2,2,5,5,6,6],"right_children":[2,4,6,-1,-1,8,10,-1,-1,-1,-1],"split_conditions":[1E0,3.694E2,5.1827E4,6.2797874E-2,1.4564742E-2,4.1E0,6.25E1,9.455828E-3,-4.7040667E-2,-3.222818E-2,-6.125591E-2],"split_indices":[11,6,0,0,0,5,6,0,0,0,0],"split_type":[0,0,0,0,0,0,0,0,0,0,0],"sum_hessian":[9.747192E1,4.7606544E1,4.9865376E1,4.5930714E1,1.6758308E0,3.1308658E0,4.673451E1,1.0889912E0,2.0418746E0,3.593647E0,4.314086E1],"tree_param":{"num_deleted":"0","num_feature":"18","num_nodes":"11","size_leaf_vector":"1"}},{"base_weights":[1.7137019E-3,1.2101681E0,-1.1444356E0,6.190606E-2,1.4136299E-2,-5.8197075E-1,-1.1693591E0,-4.6357922E-2,9.805302E-3,-3.133369E-2,-5.9977084E-2],"categories":[],"categories_nodes":[],"categories_segments":[],"categories_sizes":[],"default_left":[0,0,0,0,0,0,1,0,0,0,0],"id":16,"left_children":[1,3,5,-1,-1,7,9,-1,-1,-1,-1],"loss_changes":[1.3370535E2,8.6813354E-1,1.4007568E-2,0E0,0E0,1.2811315E0,9.143829E-3,0E0,0E0,0E0,0E0],"parents":[2147483647,0,0,1,1,2,2,5,5,6,6],"right_children":[2,4,6,-1,-1,8,10,-1,-1,-1,-1],"split_conditions":[1E0,3.694E2,5.1827E4,6.190606E-2,1.4136299E-2,5.0908E4,6.25E1,-4.6357922E-2,9.805302E-3,-3.133369E-2,-5.9977084E-2],"split_indices":[11,6,0,0,0,0,6,0,0,0,0],"split_type":[0,0,0,0,0,0,0,0,0,0,0],"sum_hessian":[9.453341E1,4.5988792E1,4.8544617E1,4.431806E1,1.6707287E0,3.0930066E0,4.545161E1,2.0097804E0,1.0832262E0,3.5413132E0,4.1910297E1],"tree_param":{"num_deleted":"0","num_feature":"18","num_nodes":"11","size_leaf_vector":"1"}},{"base_weights":[1.2357215E-3,1.1927948E0,-1.1203465E0,6.107501E-2,1.3721011E-2,-5.6726456E-1,-1.1451974E0,-4.545306E-2,9.532387E-3,-3.0466486E-2,-5.8772173E-2],"categories":[],"categories_nodes":[],"categories_segments":[],"categories_sizes":[],"default_left":[0,0,0,0,0,0,1,0,0,0,0],"id":17,"left_children":[1,3,5,-1,-1,7,9,-1,-1,-1,-1],"loss_changes":[1.25119934E2,8.61496E-1,1.3240814E-2,0E0,0E0,1.2238492E0,1.5918732E-2,0E0,0E0,0E0,0E0],"parents":[2147483647,0,0,1,1,2,2,5,5,6,6],"right_children":[2,4,6,-1,-1,8,10,-1,-1,-1,-1],"split_conditions":[1E0,3.694E2,5.1827E4,6.107501E-2,1.3721011E-2,5.0908E4,6.25E1,-4.545306E-2,9.532387E-3,-3.0466486E-2,-5.8772173E-2],"split_indices":[11,6,0,0,0,0,6,0,0,0,0],"split_type":[0,0,0,0,0,0,0,0,0,0,0],"sum_hessian":[9.162247E1,4.4394573E1,4.7227894E1,4.2728943E1,1.6656302E0,3.0553215E0,4.4172573E1,1.9682634E0,1.0870581E0,3.4897945E0,4.068278E1],"tree_param":{"num_deleted":"0","num_feature":"18","num_nodes":"11","size_leaf_vector":"1"}},{"base_weights":[7.649239E-4,1.1764538E0,-1.0974563E0,6.0298797E-2,1.3318387E-2,-5.5314565E-1,-1.1222689E0,9.854532E-3,-4.4829354E-2,-2.9625097E-2,-5.7632662E-2],"categories":[],"categories_nodes":[],"categories_segments":[],"categories_sizes":[],"default_left":[0,0,0,0,0,0,1,0,0,0,0],"id":18,"left_children":[1,3,5,-1,-1,7,9,-1,-1,-1,-1],"loss_changes":[1.1717117E2,8.563194E-1,1.2916565E-2,0E0,0E0,1.2118826E0,2.3738861E-2,0E0,0E0,0E0,0E0],"parents":[2147483647,0,0,1,1,2,2,5,5,6,6],"right_children":[2,4,6,-1,-1,8,10,-1,-1,-1,-1],"split_conditions":[1E0,3.694E2,5.1827E4,6.0298797E-2,1.3318387E-2,4.1E0,6.25E1,9.854532E-3,-4.4829354E-2,-2.9625097E-2,-5.7632662E-2],"split_indices":[11,6,0,0,0,5,6,0,0,0,0],"split_type":[0,0,0,0,0,0,0,0,0,0,0],"sum_hessian":[8.874835E1,4.282803E1,4.5920322E1,4.1167484E1,1.6605455E0,3.0175605E0,4.2902763E1,1.0814028E0,1.9361577E0,3.4391649E0,3.9463596E1],"tree_param":{"num_deleted":"0","num_feature":"18","num_nodes":"11","size_leaf_vector":"1"}},{"base_weights":[3.043233E-4,1.1610414E0,-1.0756156E0,5.9572216E-2,1.2927987E-2,-5.3945297E-1,-1.1004331E0,9.580393E-3,-4.3985166E-2,-2.8808204E-2,-5.6551106E-2],"categories":[],"categories_nodes":[],"categories_segments":[],"categories_sizes":[],"default_left":[0,0,0,0,0,0,1,0,0,0,0],"id":19,"left_children":[1,3,5,-1,-1,7,9,-1,-1,-1,-1],"loss_changes":[1.0979909E2,8.523636E-1,1.34887695E-2,0E0,0E0,1.1585925E0,3.226471E-2,0E0,0E0,0E0,0E0],"parents":[2147483647,0,0,1,1,2,2,5,5,6,6],"right_children":[2,4,6,-1,-1,8,10,-1,-1,-1,-1],"split_conditions":[1E0,3.694E2,5.1827E4,5.9572216E-2,1.2927987E-2,4.1E0,6.25E1,9.580393E-3,-4.3985166E-2,-2.8808204E-2,-5.6551106E-2],"split_indices":[11,6,0,0,0,5,6,0,0,0,0],"split_type":[0,0,0,0,0,0,0,0,0,0,0],"sum_hessian":[8.591946E1,4.129258E1,4.462688E1,3.9637096E1,1.6554831E0,2.9801388E0,4.164674E1,1.0852455E0,1.8948933E0,3.3894846E0,3.8257256E1],"tree_param":{"num_deleted":"0","num_feature":"18","num_nodes":"11","size_leaf_vector":"1"}},{"base_weights":[-1.5082292E-4,1.1464647E0,-1.0547208E0,5.8890607E-2,1.2549402E-2,-5.262869E-1,-1.0795662E0,-4.341459E-2,9.882822E-3,-2.8014615E-2,-5.5520963E-2],"categories":[],"categories_nodes":[],"categories_segments":[],"categories_sizes":[],"default_left":[0,0,0,0,0,0,1,0,0,0,0],"id":20,"left_children":[1,3,5,-1,-1,7,9,-1,-1,-1,-1],"loss_changes":[1.0295281E2,8.4942245E-1,1.4133453E-2,0E0,0E0,1.1478397E0,4.125595E-2,0E0,0E0,0E0,0E0],"parents":[2147483647,0,0,1,1,2,2,5,5,6,6],"right_children":[2,4,6,-1,-1,8,10,-1,-1,-1,-1],"split_conditions":[1E0,3.694E2,5.1827E4,5.8890607E-2,1.2549402E-2,5.0908E4,6.25E1,-4.341459E-2,9.882822E-3,-2.8014615E-2,-5.5520963E-2],"split_indices":[11,6,0,0,0,0,6,0,0,0,0],"split_type":[0,0,0,0,0,0,0,0,0,0,0],"sum_hessian":[8.314221E1,3.9791008E1,4.3351208E1,3.8140556E1,1.6504517E0,2.9428406E0,4.0408367E1,1.8632251E0,1.0796155E0,3.3408034E0,3.7067562E1],"tree_param":{"num_deleted":"0","num_feature":"18","num_nodes":"11","size_leaf_vector":"1"}},{"base_weights":[-5.9654686E-4,1.1326412E0,-1.0346538E0,5.8249842E-2,1.2182212E-2,-5.1350224E-1,-1.0595591E0,-4.262284E-2,9.608095E-3,-2.724326E-2,-5.453646E-2],"categories":[],"categories_nodes":[],"categories_segments":[],"categories_sizes":[],"default_left":[0,0,0,0,0,0,1,0,0,0,0],"id":21,"left_children":[1,3,5,-1,-1,7,9,-1,-1,-1,-1],"loss_changes":[9.6585365E1,8.4732056E-1,1.5285492E-2,0E0,0E0,1.0980804E0,5.0483704E-2,0E0,0E0,0E0,0E0],"parents":[2147483647,0,0,1,1,2,2,5,5,6,6],"right_children":[2,4,6,-1,-1,8,10,-1,-1,-1,-1],"split_conditions":[1E0,3.694E2,5.1827E4,5.8249842E-2,1.2182212E-2,5.0908E4,6.25E1,-4.262284E-2,9.608095E-3,-2.724326E-2,-5.453646E-2],"split_indices":[11,6,0,0,0,0,6,0,0,0,0],"split_type":[0,0,0,0,0,0,0,0,0,0,0],"sum_hessian":[8.042244E1,3.8325573E1,4.209687E1,3.6680115E1,1.6454581E0,2.9060087E0,3.919086E1,1.8225538E0,1.0834551E0,3.2931602E0,3.58977E1],"tree_param":{"num_deleted":"0","num_feature":"18","num_nodes":"11","size_leaf_vector":"1"}},{"base_weights":[-1.037696E-3,1.1194963E0,-1.0153359E0,5.7646204E-2,1.1826039E-2,-5.011936E-1,-1.0403153E0,9.887177E-3,-4.209627E-2,-2.6493171E-2,-5.359248E-2],"categories":[],"categories_nodes":[],"categories_segments":[],"categories_sizes":[],"default_left":[0,0,0,0,0,0,1,0,0,0,0],"id":22,"left_children":[1,3,5,-1,-1,7,9,-1,-1,-1,-1],"loss_changes":[9.065678E1,8.459053E-1,1.6288757E-2,0E0,0E0,1.0879967E0,5.978775E-2,0E0,0E0,0E0,0E0],"parents":[2147483647,0,0,1,1,2,2,5,5,6,6],"right_children":[2,4,6,-1,-1,8,10,-1,-1,-1,-1],"split_conditions":[1E0,3.694E2,5.1827E4,5.7646204E-2,1.1826039E-2,4.1E0,6.25E1,9.887177E-3,-4.209627E-2,-2.6493171E-2,-5.359248E-2],"split_indices":[11,6,0,0,0,5,6,0,0,0,0],"split_type":[0,0,0,0,0,0,0,0,0,0,0],"sum_hessian":[7.776439E1,3.689802E1,4.0866367E1,3.525751E1,1.6405088E0,2.869456E0,3.799691E1,1.0779425E0,1.7915137E0,3.2465863E0,3.4750324E1],"tree_param":{"num_deleted":"0","num_feature":"18","num_nodes":"11","size_leaf_vector":"1"}},{"base_weights":[-1.4708609E-3,1.1069627E0,-9.9667275E-1,5.7076346E-2,1.1480522E-2,-4.892301E-1,-1.0217487E0,-4.1350286E-2,9.612656E-3,-5.152694E-1,-5.2684456E-2,-3.3580314E-2,-1.2387522E-2],"categories":[],"categories_nodes":[],"categories_segments":[],"categories_sizes":[],"default_left":[0,0,0,0,0,0,1,0,0,0,0,0,0],"id":23,"left_children":[1,3,5,-1,-1,7,9,-1,-1,11,-1,-1,-1],"loss_changes":[8.512957E1,8.45047E-1,1.7539978E-2,0E0,0E0,1.0414127E0,6.902313E-2,0E0,0E0,9.312391E-3,0E0,0E0,0E0],"parents":[2147483647,0,0,1,1,2,2,5,5,6,6,9,9],"right_children":[2,4,6,-1,-1,8,10,-1,-1,12,-1,-1,-1],"split_conditions":[1E0,3.694E2,5.1827E4,5.7076346E-2,1.1480522E-2,5.0908E4,6.25E1,-4.1350286E-2,9.612656E-3,5.8982E4,-5.2684456E-2,-3.3580314E-2,-1.2387522E-2],"split_indices":[11,6,0,0,0,0,6,0,0,0,0,0,0],"split_type":[0,0,0,0,0,0,0,0,0,0,0,0,0],"sum_hessian":[7.517183E1,3.5509663E1,3.9662167E1,3.3874054E1,1.6356096E0,2.8334608E0,3.6828705E1,1.7516979E0,1.081763E0,3.2011046E0,3.36276E1,1.0670348E0,2.1340697E0],"tree_param":{"num_deleted":"0","num_feature":"18","num_nodes":"13","size_leaf_vector":"1"}},{"base_weights":[-2.1712603E-3,1.0949801E0,-9.788422E-1,5.653728E-2,1.1145294E-2,-4.777E-1,-1.0040317E0,9.875178E-3,-4.0864345E-2,-1.689004E-2,-5.10453E-2],"categories":[],"categories_nodes":[],"categories_segments":[],"categories_sizes":[],"default_left":[0,0,0,0,0,0,0,0,0,0,0],"id":24,"left_children":[1,3,5,-1,-1,7,9,-1,-1,-1,-1],"loss_changes":[8.000075E1,8.446388E-1,1.896286E-2,0E0,0E0,1.0322301E0,6.771088E-2,0E0,0E0,0E0,0E0],"parents":[2147483647,0,0,1,1,2,2,5,5,6,6],"right_children":[2,4,6,-1,-1,8,10,-1,-1,-1,-1],"split_conditions":[1E0,3.694E2,5.1827E4,5.653728E-2,1.1145294E-2,4.1E0,6.01E1,9.875178E-3,-4.0864345E-2,-1.689004E-2,-5.10453E-2],"split_indices":[11,6,0,0,0,5,6,0,0,0,0],"split_type":[0,0,0,0,0,0,0,0,0,0,0],"sum_hessian":[7.265825E1,3.4161503E1,3.8496746E1,3.253074E1,1.6307656E0,2.7978635E0,3.5698883E1,1.0762823E0,1.7215813E0,1.4010572E0,3.4297825E1],"tree_param":{"num_deleted":"0","num_feature":"18","num_nodes":"11","size_leaf_vector":"1"}},{"base_weights":[-2.4614902E-3,1.0834935E0,-9.6112E-1,5.6026276E-2,1.0820038E-2,-4.6648392E-1,-9.8641616E-1,9.60124E-3,-4.015845E-2,-4.8478234E-1,-5.0972886E-2,-3.2755043E-2,-1.0680013E-2],"categories":[],"categories_nodes":[],"categories_segments":[],"categories_sizes":[],"default_left":[0,0,0,0,0,0,1,0,0,0,0,0,0],"id":25,"left_children":[1,3,5,-1,-1,7,9,-1,-1,11,-1,-1,-1],"loss_changes":[7.516601E1,8.445816E-1,1.9664764E-2,0E0,0E0,9.884986E-1,9.5581055E-2,0E0,0E0,4.9701154E-2,0E0,0E0,0E0],"parents":[2147483647,0,0,1,1,2,2,5,5,6,6,9,9],"right_children":[2,4,6,-1,-1,8,10,-1,-1,12,-1,-1,-1],"split_conditions":[1E0,3.694E2,5.1827E4,5.6026276E-2,1.0820038E-2,4.1E0,6.25E1,9.60124E-3,-4.015845E-2,5.8982E4,-5.0972886E-2,-3.2755043E-2,-1.0680013E-2],"split_indices":[11,6,0,0,0,5,6,0,0,0,0,0,0],"split_type":[0,0,0,0,0,0,0,0,0,0,0,0,0],"sum_hessian":[7.020113E1,3.2854168E1,3.7346962E1,3.1228188E1,1.6259812E0,2.7628891E0,3.4584072E1,1.080075E0,1.6828142E0,3.1056886E0,3.1478384E1,1.0380243E0,2.0676641E0],"tree_param":{"num_deleted":"0","num_feature":"18","num_nodes":"13","size_leaf_vector":"1"}},{"base_weights":[-3.1506682E-3,1.0724523E0,-9.442765E-1,5.554085E-2,1.0504426E-2,-5.3181767E-2,-7.492929E-1,3.2750815E-1,-9.259705E-1,-9.097144E-3,3.4072664E-2,-1.917842E-2,-5.1136643E-2],"categories":[],"categories_nodes":[],"categories_segments":[],"categories_sizes":[],"default_left":[0,0,0,0,0,0,0,0,0,0,0,0,0],"id":26,"left_children":[1,3,5,-1,-1,-1,7,9,11,-1,-1,-1,-1],"loss_changes":[7.068686E1,8.447838E-1,6.973648E-2,0E0,0E0,0E0,3.6372395E0,7.0258796E-1,4.1154194E-1,0E0,0E0,0E0,0E0],"parents":[2147483647,0,0,1,1,2,2,6,6,7,7,8,8],"right_children":[2,4,6,-1,-1,-1,8,10,12,-1,-1,-1,-1],"split_conditions":[1E0,3.694E2,9.217766E-3,5.554085E-2,1.0504426E-2,-5.3181767E-2,5.9066E4,7.29E1,7.6E1,-9.097144E-3,3.4072664E-2,-1.917842E-2,-5.1136643E-2],"split_indices":[11,6,9,0,0,0,0,6,6,0,0,0,0],"split_type":[0,0,0,0,0,0,0,0,0,0,0,0,0],"sum_hessian":[6.782911E1,3.1587984E1,3.6241123E1,2.9966724E1,1.6212605E0,1.9716629E1,1.6524494E1,2.2087948E0,1.4315699E1,1.1047008E0,1.1040941E0,2.9187346E0,1.1396964E1],"tree_param":{"num_deleted":"0","num_feature":"18","num_nodes":"13","size_leaf_vector":"1"}},{"base_weights":[-3.4996707E-3,1.0618114E0,-9.274344E-1,5.507877E-2,1.0198147E-2,-5.238803E-2,-7.322695E-1,3.1782028E-1,-9.10066E-1,-8.884468E-3,3.2919753E-2,-1.864581E-2,-5.0394136E-2],"categories":[],"categories_nodes":[],"categories_segments":[],"categories_sizes":[],"default_left":[0,0,0,0,0,0,0,0,0,0,0,0,0],"id":27,"left_children":[1,3,5,-1,-1,-1,7,9,11,-1,-1,-1,-1],"loss_changes":[6.646042E1,8.4516144E-1,8.188248E-2,0E0,0E0,0E0,3.4840155E0,6.602064E-1,4.066391E-1,0E0,0E0,0E0,0E0],"parents":[2147483647,0,0,1,1,2,2,6,6,7,7,8,8],"right_children":[2,4,6,-1,-1,-1,8,10,12,-1,-1,-1,-1],"split_conditions":[1E0,3.694E2,9.217766E-3,5.507877E-2,1.0198147E-2,-5.238803E-2,5.9066E4,7.29E1,7.6E1,-8.884468E-3,3.2919753E-2,-1.864581E-2,-5.0394136E-2],"split_indices":[11,6,9,0,0,0,0,6,6,0,0,0,0],"split_type":[0,0,0,0,0,0,0,0,0,0,0,0,0],"sum_hessian":[6.552152E1,3.036313E1,3.515839E1,2.8746523E1,1.6166066E0,1.9046772E1,1.6111616E1,2.218907E0,1.389271E1,1.0986799E0,1.1202272E0,2.881524E0,1.1011186E1],"tree_param":{"num_deleted":"0","num_feature":"18","num_nodes":"13","size_leaf_vector":"1"}},{"base_weights":[-3.855421E-3,1.0515283E0,-9.1104186E-1,5.4637957E-2,9.9009015E-3,-1.032411E0,-7.1565557E-1,-5.344236E-2,-1.9373572E-2,3.0840057E-1,-8.945257E-1,-8.67683E-3,3.1813633E-2,-1.8126136E-2,-4.9673256E-2],"categories":[],"categories_nodes":[],"categories_segments":[],"categories_sizes":[],"default_left":[0,0,0,0,0,0,0,0,0,0,0,0,0,0,0],"id":28,"left_children":[1,3,5,-1,-1,7,9,-1,-1,11,13,-1,-1,-1,-1],"loss_changes":[6.2506123E1,8.4565735E-1,9.3631744E-2,0E0,0E0,4.161644E-2,3.3367672E0,0E0,0E0,6.205468E-1,4.021206E-1,0E0,0E0,0E0,0E0],"parents":[2147483647,0,0,1,1,2,2,5,5,6,6,9,9,10,10],"right_children":[2,4,6,-1,-1,8,10,-1,-1,12,14,-1,-1,-1,-1],"split_conditions":[1E0,3.694E2,9.217766E-3,5.4637957E-2,9.9009015E-3,1.461E2,5.9066E4,-5.344236E-2,-1.9373572E-2,7.29E1,7.6E1,-8.67683E-3,3.1813633E-2,-1.8126136E-2,-4.9673256E-2],"split_indices":[11,6,9,0,0,6,0,0,0,6,6,0,0,0,0],"split_type":[0,0,0,0,0,0,0,0,0,0,0,0,0,0,0],"sum_hessian":[6.3284744E1,2.9179451E1,3.4105293E1,2.7567429E1,1.6120226E0,1.83949E1,1.5710394E1,1.6789106E1,1.6057928E0,2.2283914E0,1.3482002E1,1.092804E0,1.1355873E0,2.8455267E0,1.0636476E1],"tree_param":{"num_deleted":"0","num_feature":"18","num_nodes":"15","size_leaf_vector":"1"}},{"base_weights":[-4.55703E-3,1.0415651E0,-8.953995E-1,5.4216553E-2,9.61241E-3,-1.0180907E0,-6.994216E-1,-5.2758425E-2,-1.8915059E-2,2.9924437E-1,-8.793127E-1,-8.474099E-3,3.0751912E-2,-1.7619139E-2,-4.8971694E-2],"categories":[],"categories_nodes":[],"categories_segments":[],"categories_sizes":[],"default_left":[0,0,0,0,0,0,0,0,0,0,0,0,0,0,0],"id":29,"left_children":[1,3,5,-1,-1,7,9,-1,-1,11,13,-1,-1,-1,-1],"loss_changes":[5.883306E1,8.4620667E-1,1.0767937E-1,0E0,0E0,4.6136856E-2,3.195207E0,0E0,0E0,5.834217E-1,3.978758E-1,0E0,0E0,0E0,0E0],"parents":[2147483647,0,0,1,1,2,2,5,5,6,6,9,9,10,10],"right_children":[2,4,6,-1,-1,8,10,-1,-1,12,14,-1,-1,-1,-1],"split_conditions":[1E0,3.694E2,9.217766E-3,5.4216553E-2,9.61241E-3,1.461E2,5.9066E4,-5.2758425E-2,-1.8915059E-2,7.29E1,7.6E1,-8.474099E-3,3.0751912E-2,-1.7619139E-2,-4.8971694E-2],"split_indices":[11,6,9,0,0,6,0,0,0,6,6,0,0,0,0],"split_type":[0,0,0,0,0,0,0,0,0,0,0,0,0,0,0],"sum_hessian":[6.11296E1,2.8036715E1,3.3092884E1,2.6429205E1,1.607511E0,1.7771925E1,1.532096E1,1.6184727E1,1.587199E0,2.2372708E0,1.308369E1,1.0870697E0,1.150201E0,2.810709E0,1.027298E1],"tree_param":{"num_deleted":"0","num_feature":"18","num_nodes":"15","size_leaf_vector":"1"}},{"base_weights":[-5.264325E-3,1.0318859E0,-8.801184E-1,5.38128E-2,9.332405E-3,-1.0041866E0,-6.8354183E-1,-5.2097347E-2,-1.8467559E-2,2.903459E-1,-8.6439395E-1,-8.27617E-3,2.9732296E-2,-1.712456E-2,-4.8287354E-2],"categories":[],"categories_nodes":[],"categories_segments":[],"categories_sizes":[],"default_left":[0,0,0,0,0,0,0,0,0,0,0,0,0,0,0],"id":30,"left_children":[1,3,5,-1,-1,7,9,-1,-1,11,13,-1,-1,-1,-1],"loss_changes":[5.5390408E1,8.46756E-1,1.21126175E-1,0E0,0E0,5.0653458E-2,3.0590768E0,0E0,0E0,5.486566E-1,3.938055E-1,0E0,0E0,0E0,0E0],"parents":[2147483647,0,0,1,1,2,2,5,5,6,6,9,9,10,10],"right_children":[2,4,6,-1,-1,8,10,-1,-1,12,14,-1,-1,-1,-1],"split_conditions":[1E0,3.694E2,9.217766E-3,5.38128E-2,9.332405E-3,1.461E2,5.9066E4,-5.2097347E-2,-1.8467559E-2,7.29E1,7.6E1,-8.27617E-3,2.9732296E-2,-1.712456E-2,-4.8287354E-2],"split_indices":[11,6,9,0,0,6,0,0,0,6,6,0,0,0,0],"split_type":[0,0,0,0,0,0,0,0,0,0,0,0,0,0,0],"sum_hessian":[5.9045097E1,2.6934465E1,3.211063E1,2.5331392E1,1.603074E0,1.716725E1,1.4943382E1,1.5598176E1,1.5690727E0,2.2455697E0,1.2697812E1,1.0814742E0,1.1640956E0,2.7770402E0,9.920772E0],"tree_param":{"num_deleted":"0","num_feature":"18","num_nodes":"15","size_leaf_vector":"1"}},{"base_weights":[-5.9759724E-3,1.0224587E0,-8.6516213E-1,5.3425144E-2,9.060611E-3,-9.9065304E-1,-6.6799366E-1,-5.145668E-2,-1.803076E-2,2.8169993E-1,-8.4974027E-1,-8.0829095E-3,2.875266E-2,-6.124518E-3,-4.51915E-2],"categories":[],"categories_nodes":[],"categories_segments":[],"categories_sizes":[],"default_left":[0,0,0,0,0,0,0,0,0,0,0,0,0,0,0],"id":31,"left_children":[1,3,5,-1,-1,7,9,-1,-1,11,13,-1,-1,-1,-1],"loss_changes":[5.2161694E1,8.472576E-1,1.3394737E-1,0E0,0E0,5.5116653E-2,2.9281335E0,0E0,0E0,5.160897E-1,4.134264E-1,0E0,0E0,0E0,0E0],"parents":[2147483647,0,0,1,1,2,2,5,5,6,6,9,9,10,10],"right_children":[2,4,6,-1,-1,8,10,-1,-1,12,14,-1,-1,-1,-1],"split_conditions":[1E0,3.694E2,9.217766E-3,5.3425144E-2,9.060611E-3,1.461E2,5.9066E4,-5.145668E-2,-1.803076E-2,7.29E1,1.5448E4,-8.0829095E-3,2.875266E-2,-6.124518E-3,-4.51915E-2],"split_indices":[11,6,9,0,0,6,0,0,0,6,1,0,0,0,0],"split_type":[0,0,0,0,0,0,0,0,0,0,0,0,0,0,0],"sum_hessian":[5.7030926E1,2.5872206E1,3.1158722E1,2.4273493E1,1.598713E0,1.6581059E1,1.4577664E1,1.5029652E1,1.551407E0,2.2533123E0,1.2324351E1,1.0760139E0,1.1772984E0,1.0791731E0,1.1245178E1],"tree_param":{"num_deleted":"0","num_feature":"18","num_nodes":"15","size_leaf_vector":"1"}},{"base_weights":[-6.4648017E-3,1.0132529E0,-8.5027474E-1,5.305208E-2,8.796774E-3,-9.774484E-1,-6.522094E-1,-5.0834205E-2,-1.760438E-2,2.7330038E-1,-8.3477914E-1,-7.894218E-3,2.7811E-2,-1.5468172E-2,-4.7043256E-2],"categories":[],"categories_nodes":[],"categories_segments":[],"categories_sizes":[],"default_left":[0,0,0,0,0,0,0,0,0,0,0,0,0,0,0],"id":32,"left_children":[1,3,5,-1,-1,7,9,-1,-1,11,13,-1,-1,-1,-1],"loss_changes":[4.911504E1,8.476658E-1,1.4914894E-1,0E0,0E0,5.9488297E-2,2.7993412E0,0E0,0E0,4.8557174E-1,4.3110847E-1,0E0,0E0,0E0,0E0],"parents":[2147483647,0,0,1,1,2,2,5,5,6,6,9,9,10,10],"right_children":[2,4,6,-1,-1,8,10,-1,-1,12,14,-1,-1,-1,-1],"split_conditions":[1E0,3.694E2,9.217766E-3,5.305208E-2,8.796774E-3,1.461E2,5.9066E4,-5.0834205E-2,-1.760438E-2,7.29E1,7.6E1,-7.894218E-3,2.7811E-2,-1.5468172E-2,-4.7043256E-2],"split_indices":[11,6,9,0,0,6,0,0,0,6,6,0,0,0,0],"split_type":[0,0,0,0,0,0,0,0,0,0,0,0,0,0,0],"sum_hessian":[5.507951E1,2.4849215E1,3.0230297E1,2.3254786E1,1.5944297E0,1.6013426E1,1.4216871E1,1.4479231E1,1.5341942E0,2.260523E0,1.1956348E1,1.0706861E0,1.189837E0,2.6664226E0,9.289926E0],"tree_param":{"num_deleted":"0","num_feature":"18","num_nodes":"15","size_leaf_vector":"1"}},{"base_weights":[-7.1792426E-3,1.0042406E0,-8.3586E-1,5.269226E-2,8.540673E-3,-5.584927E-1,-9.166013E-1,-8.574646E-1,2.6514152E-1,-4.8805404E-1,-5.0731864E-2,-1.0129824E-2,-4.833285E-2,-7.7099763E-3,2.690543E-2,-3.752358E-2,2.0613104E-2],"categories":[],"categories_nodes":[],"categories_segments":[],"categories_sizes":[],"default_left":[0,0,0,0,0,0,1,0,0,0,0,0,0,0,0,0,0],"id":33,"left_children":[1,3,5,-1,-1,7,9,11,13,15,-1,-1,-1,-1,-1,-1,-1],"loss_changes":[4.627015E1,8.4794235E-1,1.6753197E-1,0E0,0E0,2.5420446E0,4.2653656E-1,3.142004E-1,4.569634E-1,1.7296213E0,0E0,0E0,0E0,0E0,0E0,0E0,0E0],"parents":[2147483647,0,0,1,1,2,2,5,5,6,6,7,7,8,8,9,9],"right_children":[2,4,6,-1,-1,8,10,12,14,16,-1,-1,-1,-1,-1,-1,-1],"split_conditions":[1E0,3.694E2,5.9403E4,5.269226E-2,8.540673E-3,9.217766E-3,7.6E1,3.3E0,7.29E1,7.2348E4,-5.0731864E-2,-1.0129824E-2,-4.833285E-2,-7.7099763E-3,2.690543E-2,-3.752358E-2,2.0613104E-2],"split_indices":[11,6,0,0,0,9,6,5,6,0,0,0,0,0,0,0,0],"split_type":[0,0,0,0,0,0,0,0,0,0,0,0,0,0,0,0,0],"sum_hessian":[5.3203968E1,2.3864752E1,2.9339218E1,2.2274527E1,1.5902255E0,8.400024E0,2.0939194E1,6.1327987E0,2.2672257E0,5.011334E0,1.5927859E1,1.2845101E0,4.8482885E0,1.0654874E0,1.2017384E0,4.0091977E0,1.002136E0],"tree_param":{"num_deleted":"0","num_feature":"18","num_nodes":"17","size_leaf_vector":"1"}},{"base_weights":[-7.863023E-3,9.953965E-1,-8.215646E-1,5.234443E-2,8.292043E-3,-9.522846E-1,-6.2119484E-1,-4.9692545E-2,-1.6300993E-2,2.230057E-2,-7.774175E-1,9.678322E-3,-4.4175923E-2],"categories":[],"categories_nodes":[],"categories_segments":[],"categories_sizes":[],"default_left":[0,0,0,0,0,0,0,0,0,0,0,0,0],"id":34,"left_children":[1,3,5,-1,-1,7,9,-1,-1,-1,11,-1,-1],"loss_changes":[4.35933E1,8.480549E-1,1.8060112E-1,0E0,0E0,9.15699E-2,2.7667913E0,0E0,0E0,0E0,1.5130463E0,0E0,0E0],"parents":[2147483647,0,0,1,1,2,2,5,5,6,6,10,10],"right_children":[2,4,6,-1,-1,8,10,-1,-1,-1,12,-1,-1],"split_conditions":[1E0,3.694E2,9.217766E-3,5.234443E-2,8.292043E-3,1.461E2,1.214995E-2,-4.9692545E-2,-1.6300993E-2,2.230057E-2,5.7298E4,9.678322E-3,-4.4175923E-2],"split_indices":[11,6,9,0,0,6,9,0,0,0,0,0,0],"split_type":[0,0,0,0,0,0,0,0,0,0,0,0,0],"sum_hessian":[5.1398254E1,2.2918016E1,2.8480236E1,2.1331917E1,1.5861006E0,1.4964712E1,1.3515525E1,1.348288E1,1.4818327E0,1.4889647E0,1.202656E1,1.1035011E0,1.09230585E1],"tree_param":{"num_deleted":"0","num_feature":"18","num_nodes":"13","size_leaf_vector":"1"}},{"base_weights":[-8.0123935E-3,9.866962E-1,-8.0694973E-1,5.2007407E-2,8.050674E-3,-6.650459E-1,-5.1220335E-2,-3.9933705E-1,-4.9772512E-2,-3.8461372E-2,1.0652914E-2],"categories":[],"categories_nodes":[],"categories_segments":[],"categories_sizes":[],"default_left":[0,0,0,0,0,1,0,0,0,0,0],"id":35,"left_children":[1,3,5,-1,-1,7,-1,9,-1,-1,-1],"loss_changes":[4.1043564E1,8.4796906E-1,2.0236969E-1,0E0,0E0,1.374011E0,0E0,3.075643E0,0E0,0E0,0E0],"parents":[2147483647,0,0,1,1,2,2,5,5,7,7],"right_children":[2,4,6,-1,-1,8,-1,10,-1,-1,-1],"split_conditions":[1E0,3.694E2,4.5E0,5.2007407E-2,8.050674E-3,9.66E1,-5.1220335E-2,8.33801E-3,-4.9772512E-2,-3.8461372E-2,1.0652914E-2],"split_indices":[11,6,5,0,0,6,0,9,0,0,0],"split_type":[0,0,0,0,0,0,0,0,0,0,0],"sum_hessian":[4.9644077E1,2.2008104E1,2.7635971E1,2.0426048E1,1.582056E0,1.917888E1,8.457091E0,1.1854336E1,7.3245444E0,7.230796E0,4.62354E0],"tree_param":{"num_deleted":"0","num_feature":"18","num_nodes":"11","size_leaf_vector":"1"}},{"base_weights":[-9.197348E-3,9.781177E-1,-7.930646E-1,5.16801E-2,7.816345E-3,-5.0890625E-1,-8.7844783E-1,-8.132627E-1,2.5701877E-1,-4.3465015E-1,-4.9269732E-2,-4.646849E-2,-7.208769E-3,-7.1818726E-3,2.5589928E-2,-3.483012E-2,1.7443502E-2],"categories":[],"categories_nodes":[],"categories_segments":[],"categories_sizes":[],"default_left":[0,0,0,0,0,0,1,0,0,1,0,0,0,0,0,0,0],"id":36,"left_children":[1,3,5,-1,-1,7,9,11,13,15,-1,-1,-1,-1,-1,-1,-1],"loss_changes":[3.869891E1,8.4765816E-1,2.2907257E-1,0E0,0E0,2.2641299E0,5.2338505E-1,3.7477446E-1,4.0698883E-1,1.4094039E0,0E0,0E0,0E0,0E0,0E0,0E0,0E0],"parents":[2147483647,0,0,1,1,2,2,5,5,6,6,7,7,8,8,9,9],"right_children":[2,4,6,-1,-1,8,10,12,14,16,-1,-1,-1,-1,-1,-1,-1],"split_conditions":[1E0,3.694E2,5.9403E4,5.16801E-2,7.816345E-3,9.217766E-3,7.6E1,5.8975E4,7.29E1,7.56E1,-4.9269732E-2,-4.646849E-2,-7.208769E-3,-7.1818726E-3,2.5589928E-2,-3.483012E-2,1.7443502E-2],"split_indices":[11,6,0,0,0,9,6,0,6,6,0,0,0,0,0,0,0],"split_type":[0,0,0,0,0,0,0,0,0,0,0,0,0,0,0,0,0],"sum_hessian":[4.80012E1,2.1134087E1,2.6867115E1,1.9555994E1,1.5780923E0,7.8158746E0,1.905124E1,5.5490417E0,2.2668333E0,4.6828713E0,1.436837E1,4.3970146E0,1.152027E0,1.050729E0,1.2161043E0,3.5926743E0,1.0901971E0],"tree_param":{"num_deleted":"0","num_feature":"18","num_nodes":"17","size_leaf_vector":"1"}},{"base_weights":[-9.870572E-3,9.6964E-1,-7.7936804E-1,5.1361483E-2,7.588846E-3,-6.341122E-1,-5.0285548E-2,-3.6832115E-1,-4.8803497E-2,-3.6956295E-2,1.0760236E-2],"categories":[],"categories_nodes":[],"categories_segments":[],"categories_sizes":[],"default_left":[0,0,0,0,0,1,0,0,0,0,0],"id":37,"left_children":[1,3,5,-1,-1,7,-1,9,-1,-1,-1],"loss_changes":[3.6474243E1,8.470917E-1,2.5305367E-1,0E0,0E0,1.386436E0,0E0,2.845252E0,0E0,0E0,0E0],"parents":[2147483647,0,0,1,1,2,2,5,5,7,7],"right_children":[2,4,6,-1,-1,8,-1,10,-1,-1,-1],"split_conditions":[1E0,3.694E2,4.5E0,5.1361483E-2,7.588846E-3,9.66E1,-5.0285548E-2,8.33801E-3,-4.8803497E-2,-3.6956295E-2,1.0760236E-2],"split_indices":[11,6,5,0,0,6,0,9,0,0,0],"split_type":[0,0,0,0,0,0,0,0,0,0,0],"sum_hessian":[4.6388977E1,2.0294966E1,2.6094013E1,1.8720757E1,1.5742095E0,1.820956E1,7.884453E0,1.141455E1,6.7950106E0,6.816385E0,4.5981646E0],"tree_param":{"num_deleted":"0","num_feature":"18","num_nodes":"11","size_leaf_vector":"1"}},{"base_weights":[-1.1064438E-2,9.612445E-1,-7.6587605E-1,5.1050622E-2,7.3679606E-3,-6.202286E-1,-4.977655E-2,-3.5683945E-1,-4.831216E-2,-3.624108E-2,1.02602355E-2],"categories":[],"categories_nodes":[],"categories_segments":[],"categories_sizes":[],"default_left":[0,0,0,0,0,1,0,0,0,0,0],"id":38,"left_children":[1,3,5,-1,-1,7,-1,9,-1,-1,-1],"loss_changes":[3.4399933E1,8.4625435E-1,2.648945E-1,0E0,0E0,1.3680778E0,0E0,2.6837497E0,0E0,0E0,0E0],"parents":[2147483647,0,0,1,1,2,2,5,5,7,7],"right_children":[2,4,6,-1,-1,8,-1,10,-1,-1,-1],"split_conditions":[1E0,3.694E2,4.5E0,5.1050622E-2,7.3679606E-3,9.66E1,-4.977655E-2,8.33801E-3,-4.831216E-2,-3.624108E-2,1.02602355E-2],"split_indices":[11,6,5,0,0,6,0,9,0,0,0],"split_type":[0,0,0,0,0,0,0,0,0,0,0],"sum_hessian":[4.4869022E1,1.9489796E1,2.5379229E1,1.791939E1,1.5704072E0,1.7794577E1,7.584652E0,1.1256967E1,6.5376096E0,6.6279144E0,4.629052E0],"tree_param":{"num_deleted":"0","num_feature":"18","num_nodes":"11","size_leaf_vector":"1"}},{"base_weights":[-1.2266644E-2,9.52913E-1,-7.5257456E-1,5.074661E-2,7.1535097E-3,-4.6125513E-1,-8.428587E-1,-7.7191085E-1,2.578367E-1,-3.859883E-1,-4.7942035E-2,-4.4852745E-2,-4.9902964E-3,-6.3606775E-3,2.4638198E-2,-3.2924064E-2,1.9788211E-2],"categories":[],"categories_nodes":[],"categories_segments":[],"categories_sizes":[],"default_left":[0,0,0,0,0,0,1,0,0,0,0,0,0,0,0,0,0],"id":39,"left_children":[1,3,5,-1,-1,7,9,11,13,15,-1,-1,-1,-1,-1,-1,-1],"loss_changes":[3.2447823E1,8.451214E-1,2.8691864E-1,0E0,0E0,2.0502195E0,6.05073E-1,4.1825867E-1,3.566404E-1,1.4108865E0,0E0,0E0,0E0,0E0,0E0,0E0,0E0],"parents":[2147483647,0,0,1,1,2,2,5,5,6,6,7,7,8,8,9,9],"right_children":[2,4,6,-1,-1,8,10,12,14,16,-1,-1,-1,-1,-1,-1,-1],"split_conditions":[1E0,3.694E2,5.9403E4,5.074661E-2,7.1535097E-3,9.217766E-3,7.6E1,5.8975E4,7.29E1,7.2348E4,-4.7942035E-2,-4.4852745E-2,-4.9902964E-3,-6.3606775E-3,2.4638198E-2,-3.2924064E-2,1.9788211E-2],"split_indices":[11,6,0,0,0,9,6,0,6,0,0,0,0,0,0,0,0],"split_type":[0,0,0,0,0,0,0,0,0,0,0,0,0,0,0,0,0],"sum_hessian":[4.340777E1,1.8717527E1,2.4690243E1,1.715084E1,1.5666859E0,7.2868195E0,1.7403423E1,5.037228E0,2.2495914E0,4.399832E0,1.3003591E1,3.9643779E0,1.0728505E0,1.0261728E0,1.2234186E0,3.3795269E0,1.0203049E0],"tree_param":{"num_deleted":"0","num_feature":"18","num_nodes":"17","size_leaf_vector":"1"}},{"base_weights":[-1.280021E-2,9.446292E-1,-7.392642E-1,5.0448608E-2,6.9452995E-3,-5.9042996E-1,-4.890898E-2,-3.2765824E-1,-4.739902E-2,-3.476212E-2,1.0311119E-2],"categories":[],"categories_nodes":[],"categories_segments":[],"categories_sizes":[],"default_left":[0,0,0,0,0,1,0,0,0,0,0],"id":40,"left_children":[1,3,5,-1,-1,7,-1,9,-1,-1,-1],"loss_changes":[3.0585651E1,8.436737E-1,3.1117344E-1,0E0,0E0,1.3732629E0,0E0,2.4705672E0,0E0,0E0,0E0],"parents":[2147483647,0,0,1,1,2,2,5,5,7,7],"right_children":[2,4,6,-1,-1,8,-1,10,-1,-1,-1],"split_conditions":[1E0,3.694E2,4.5E0,5.0448608E-2,6.9452995E-3,9.66E1,-4.890898E-2,8.33801E-3,-4.739902E-2,-3.476212E-2,1.0311119E-2],"split_indices":[11,6,5,0,0,6,0,9,0,0,0],"split_type":[0,0,0,0,0,0,0,0,0,0,0],"sum_hessian":[4.197008E1,1.797714E1,2.399294E1,1.6414095E1,1.563045E0,1.6922329E1,7.0706105E0,1.0858544E1,6.063785E0,6.2518296E0,4.6067147E0],"tree_param":{"num_deleted":"0","num_feature":"18","num_nodes":"11","size_leaf_vector":"1"}},{"base_weights":[-1.40101155E-2,9.363776E-1,-7.262863E-1,5.0155845E-2,6.7431256E-3,-5.772469E-1,-4.8429064E-2,-3.172897E-1,-4.6931118E-2,-3.4070175E-2,9.834728E-3],"categories":[],"categories_nodes":[],"categories_segments":[],"categories_sizes":[],"default_left":[0,0,0,0,0,1,0,0,0,0,0],"id":41,"left_children":[1,3,5,-1,-1,7,-1,9,-1,-1,-1],"loss_changes":[2.8855843E1,8.4189415E-1,3.2037544E-1,0E0,0E0,1.3512759E0,0E0,2.3275044E0,0E0,0E0,0E0],"parents":[2147483647,0,0,1,1,2,2,5,5,7,7],"right_children":[2,4,6,-1,-1,8,-1,10,-1,-1,-1],"split_conditions":[1E0,3.694E2,4.5E0,5.0155845E-2,6.7431256E-3,9.66E1,-4.8429064E-2,8.33801E-3,-4.6931118E-2,-3.4070175E-2,9.834728E-3],"split_indices":[11,6,5,0,0,6,0,9,0,0,0],"split_type":[0,0,0,0,0,0,0,0,0,0,0],"sum_hessian":[4.062234E1,1.7267605E1,2.3354734E1,1.5708121E1,1.5594839E0,1.6554327E1,6.8004074E0,1.0720493E1,5.833833E0,6.084452E0,4.636041E0],"tree_param":{"num_deleted":"0","num_feature":"18","num_nodes":"11","size_leaf_vector":"1"}},{"base_weights":[-1.5225998E-2,9.2814386E-1,-7.134676E-1,4.986755E-2,6.5468363E-3,-4.1604504E-1,-8.0857533E-1,-7.3173E-1,2.5738454E-1,-3.4028462E-1,-4.6688415E-2,-2.9145952E-3,-4.3420307E-2,-5.6276093E-3,2.371681E-2,-3.0629797E-2,1.8502785E-2],"categories":[],"categories_nodes":[],"categories_segments":[],"categories_sizes":[],"default_left":[0,0,0,0,0,0,1,0,0,0,0,0,0,0,0,0,0],"id":42,"left_children":[1,3,5,-1,-1,7,9,11,13,15,-1,-1,-1,-1,-1,-1,-1],"loss_changes":[2.7226532E1,8.3977604E-1,3.3514977E-1,0E0,0E0,1.8491222E0,6.747122E-1,4.6288753E-1,3.128697E-1,1.2217861E0,0E0,0E0,0E0,0E0,0E0,0E0,0E0],"parents":[2147483647,0,0,1,1,2,2,5,5,6,6,7,7,8,8,9,9],"right_children":[2,4,6,-1,-1,8,10,12,14,16,-1,-1,-1,-1,-1,-1,-1],"split_conditions":[1E0,3.694E2,5.9403E4,4.986755E-2,6.5468363E-3,9.217766E-3,7.6E1,3.3E0,7.29E1,7.2348E4,-4.6688415E-2,-2.9145952E-3,-4.3420307E-2,-5.6276093E-3,2.371681E-2,-3.0629797E-2,1.8502785E-2],"split_indices":[11,6,0,0,0,9,6,5,6,0,0,0,0,0,0,0,0],"split_type":[0,0,0,0,0,0,0,0,0,0,0,0,0,0,0,0,0],"sum_hessian":[3.9328415E1,1.6587868E1,2.274055E1,1.5031866E1,1.5560024E0,6.812098E0,1.5928451E1,4.5790124E0,2.2330852E0,4.1443553E0,1.1784095E1,1.0132023E0,3.5658102E0,1.003378E0,1.2297072E0,3.0953465E0,1.049009E0],"tree_param":{"num_deleted":"0","num_feature":"18","num_nodes":"17","size_leaf_vector":"1"}},{"base_weights":[-1.5675277E-2,9.1991544E-1,-7.0047563E-1,4.958306E-2,6.3562403E-3,-5.489606E-1,-4.758921E-2,-2.9085222E-1,-4.6057384E-2,-3.267003E-2,9.872149E-3],"categories":[],"categories_nodes":[],"categories_segments":[],"categories_sizes":[],"default_left":[0,0,0,0,0,1,0,0,0,0,0],"id":43,"left_children":[1,3,5,-1,-1,7,-1,9,-1,-1,-1],"loss_changes":[2.5665817E1,8.372984E-1,3.577261E-1,0E0,0E0,1.3444867E0,0E0,2.142323E0,0E0,0E0,0E0],"parents":[2147483647,0,0,1,1,2,2,5,5,7,7],"right_children":[2,4,6,-1,-1,8,-1,10,-1,-1,-1],"split_conditions":[1E0,3.694E2,4.5E0,4.958306E-2,6.3562403E-3,9.66E1,-4.758921E-2,8.33801E-3,-4.6057384E-2,-3.267003E-2,9.872149E-3],"split_indices":[11,6,5,0,0,6,0,9,0,0,0],"split_type":[0,0,0,0,0,0,0,0,0,0,0],"sum_hessian":[3.805372E1,1.5936947E1,2.2116774E1,1.4384347E1,1.5525995E0,1.5784585E1,6.332188E0,1.0372687E1,5.411897E0,5.758789E0,4.6138983E0],"tree_param":{"num_deleted":"0","num_feature":"18","num_nodes":"11","size_leaf_vector":"1"}},{"base_weights":[-1.6895708E-2,9.116795E-1,-6.879416E-1,4.9301688E-2,6.171174E-3,-5.3644454E-1,-4.7130536E-2,-2.8152692E-1,-4.5605674E-2,-3.1999066E-2,9.418591E-3],"categories":[],"categories_nodes":[],"categories_segments":[],"categories_sizes":[],"default_left":[0,0,0,0,0,1,0,0,0,0,0],"id":44,"left_children":[1,3,5,-1,-1,7,-1,9,-1,-1,-1],"loss_changes":[2.4220312E1,8.344526E-1,3.643322E-1,0E0,0E0,1.3194399E0,0E0,2.0158167E0,0E0,0E0,0E0],"parents":[2147483647,0,0,1,1,2,2,5,5,7,7],"right_children":[2,4,6,-1,-1,8,-1,10,-1,-1,-1],"split_conditions":[1E0,3.694E2,4.5E0,4.9301688E-2,6.171174E-3,9.66E1,-4.7130536E-2,8.33801E-3,-4.5605674E-2,-3.1999066E-2,9.418591E-3],"split_indices":[11,6,5,0,0,6,0,9,0,0,0],"split_type":[0,0,0,0,0,0,0,0,0,0,0],"sum_hessian":[3.686311E1,1.5313754E1,2.1549355E1,1.376448E1,1.5492747E0,1.5459357E1,6.089998E0,1.0252037E1,5.2073207E0,5.610332E0,4.6417046E0],"tree_param":{"num_deleted":"0","num_feature":"18","num_nodes":"11","size_leaf_vector":"1"}},{"base_weights":[-1.8116916E-2,9.0342605E-1,-6.755486E-1,4.902285E-2,5.9914896E-3,-3.7321636E-1,-7.75338E-1,1.199396E-1,-4.1603275E-2,-2.978202E-1,-4.548886E-2,-3.1169334E-2,3.13359E-2,-2.841321E-2,1.729068E-2],"categories":[],"categories_nodes":[],"categories_segments":[],"categories_sizes":[],"default_left":[0,0,0,0,0,0,1,0,0,0,0,0,0,0,0],"id":45,"left_children":[1,3,5,-1,-1,7,9,11,-1,13,-1,-1,-1,-1,-1],"loss_changes":[2.2857992E1,8.3123016E-1,3.744812E-1,0E0,0E0,1.7717123E0,7.3151493E-1,2.0614223E0,0E0,1.0524312E0,0E0,0E0,0E0,0E0,0E0],"parents":[2147483647,0,0,1,1,2,2,5,5,6,6,7,7,9,9],"right_children":[2,4,6,-1,-1,8,10,12,-1,14,-1,-1,-1,-1,-1],"split_conditions":[1E0,3.694E2,5.9403E4,4.902285E-2,5.9914896E-3,4.3E0,7.6E1,9.073E3,-4.1603275E-2,7.2348E4,-4.548886E-2,-3.1169334E-2,3.13359E-2,-2.841321E-2,1.729068E-2],"split_indices":[11,6,0,0,0,5,6,2,0,0,0,0,0,0,0],"split_type":[0,0,0,0,0,0,0,0,0,0,0,0,0,0,0],"sum_hessian":[3.5721344E1,1.4717367E1,2.1003975E1,1.317134E1,1.5460272E0,6.388562E0,1.4615413E1,3.4351661E0,2.9533963E0,3.9171772E0,1.06982355E1,1.2992989E0,2.135867E0,2.8406742E0,1.076503E0],"tree_param":{"num_deleted":"0","num_feature":"18","num_nodes":"15","size_leaf_vector":"1"}},{"base_weights":[-1.8939769E-2,8.951442E-1,-6.63416E-1,4.8745934E-2,5.8170054E-3,-5.105648E-1,-4.6298083E-2,-2.5907382E-1,-4.476313E-2,-3.069524E-2,9.333881E-3],"categories":[],"categories_nodes":[],"categories_segments":[],"categories_sizes":[],"default_left":[0,0,0,0,0,1,0,0,0,0,0],"id":46,"left_children":[1,3,5,-1,-1,7,-1,9,-1,-1,-1],"loss_changes":[2.1566313E1,8.276243E-1,3.8818645E-1,0E0,0E0,1.2955818E0,0E0,1.8472345E0,0E0,0E0,0E0],"parents":[2147483647,0,0,1,1,2,2,5,5,7,7],"right_children":[2,4,6,-1,-1,8,-1,10,-1,-1,-1],"split_conditions":[1E0,3.694E2,4.5E0,4.8745934E-2,5.8170054E-3,9.66E1,-4.6298083E-2,8.33801E-3,-4.476313E-2,-3.069524E-2,9.333881E-3],"split_indices":[11,6,5,0,0,6,0,9,0,0,0],"split_type":[0,0,0,0,0,0,0,0,0,0,0],"sum_hessian":[3.460052E1,1.414674E1,2.0453781E1,1.2603885E1,1.5428556E0,1.4788653E1,5.6651273E0,9.954489E0,4.834165E0,5.3324604E0,4.622028E0],"tree_param":{"num_deleted":"0","num_feature":"18","num_nodes":"11","size_leaf_vector":"1"}},{"base_weights":[-2.015402E-2,8.868255E-1,-6.512912E-1,4.8470415E-2,5.6475857E-3,-4.9869338E-1,-4.585477E-2,-2.5068796E-1,-4.432219E-2,-3.0044103E-2,8.907977E-3],"categories":[],"categories_nodes":[],"categories_segments":[],"categories_sizes":[],"default_left":[0,0,0,0,0,1,0,0,0,0,0],"id":47,"left_children":[1,3,5,-1,-1,7,-1,9,-1,-1,-1],"loss_changes":[2.0355762E1,8.236284E-1,3.9242363E-1,0E0,0E0,1.2684562E0,0E0,1.7363052E0,0E0,0E0,0E0],"parents":[2147483647,0,0,1,1,2,2,5,5,7,7],"right_children":[2,4,6,-1,-1,8,-1,10,-1,-1,-1],"split_conditions":[1E0,3.694E2,4.5E0,4.8470415E-2,5.6475857E-3,9.66E1,-4.585477E-2,8.33801E-3,-4.432219E-2,-3.0044103E-2,8.907977E-3],"split_indices":[11,6,5,0,0,6,0,9,0,0,0],"split_type":[0,0,0,0,0,0,0,0,0,0,0],"sum_hessian":[3.3551357E1,1.3600932E1,1.9950424E1,1.20611725E1,1.5397594E0,1.4501372E1,5.449052E0,9.848674E0,4.652699E0,5.2006774E0,4.647996E0],"tree_param":{"num_deleted":"0","num_feature":"18","num_nodes":"11","size_leaf_vector":"1"}},{"base_weights":[-2.1365207E-2,8.7846166E-1,-6.392985E-1,4.819577E-2,5.4830858E-3,-3.3483574E-1,-7.429276E-1,1.3930339E-1,-4.0154483E-2,-2.5848684E-1,-4.4327796E-2,-2.985141E-2,3.0575415E-2,-2.6269509E-2,1.6155269E-2],"categories":[],"categories_nodes":[],"categories_segments":[],"categories_sizes":[],"default_left":[0,0,0,0,0,0,1,0,0,0,0,0,0,0,0],"id":48,"left_children":[1,3,5,-1,-1,7,9,11,-1,13,-1,-1,-1,-1,-1],"loss_changes":[1.9214329E1,8.1924057E-1,3.9700222E-1,0E0,0E0,1.6699502E0,7.762079E-1,1.8738164E0,0E0,9.017925E-1,0E0,0E0,0E0,0E0,0E0],"parents":[2147483647,0,0,1,1,2,2,5,5,6,6,7,7,9,9],"right_children":[2,4,6,-1,-1,8,10,12,-1,14,-1,-1,-1,-1,-1],"split_conditions":[1E0,3.694E2,5.9403E4,4.819577E-2,5.4830858E-3,4.3E0,7.6E1,9.073E3,-4.0154483E-2,7.2348E4,-4.4327796E-2,-2.985141E-2,3.0575415E-2,-2.6269509E-2,1.6155269E-2],"split_indices":[11,6,0,0,0,5,6,2,0,0,0,0,0,0,0],"split_type":[0,0,0,0,0,0,0,0,0,0,0,0,0,0,0],"sum_hessian":[3.254608E1,1.3078996E1,1.9467085E1,1.1542258E1,1.5367376E0,6.017814E0,1.344927E1,3.339175E0,2.678639E0,3.7158506E0,9.73342E0,1.2014132E0,2.1377618E0,2.6132276E0,1.102623E0],"tree_param":{"num_deleted":"0","num_feature":"18","num_nodes":"15","size_leaf_vector":"1"}},{"base_weights":[-2.2133078E-2,8.7004495E-1,-6.2754357E-1,4.792149E-2,5.323358E-3,-4.7400683E-1,-4.505039E-2,-2.300273E-1,-4.3498144E-2,-2.877616E-2,8.815399E-3],"categories":[],"categories_nodes":[],"categories_segments":[],"categories_sizes":[],"default_left":[0,0,0,0,0,1,0,0,0,0,0],"id":49,"left_children":[1,3,5,-1,-1,7,-1,9,-1,-1,-1],"loss_changes":[1.8130518E1,8.144541E-1,4.1164112E-1,0E0,0E0,1.2396154E0,0E0,1.5868697E0,0E0,0E0,0E0],"parents":[2147483647,0,0,1,1,2,2,5,5,7,7],"right_children":[2,4,6,-1,-1,8,-1,10,-1,-1,-1],"split_conditions":[1E0,3.694E2,4.5E0,4.792149E-2,5.323358E-3,9.66E1,-4.505039E-2,8.33801E-3,-4.3498144E-2,-2.877616E-2,8.815399E-3],"split_indices":[11,6,5,0,0,6,0,9,0,0,0],"split_type":[0,0,0,0,0,0,0,0,0,0,0],"sum_hessian":[3.1555862E1,1.2579968E1,1.8975895E1,1.1046179E1,1.5337889E0,1.3903245E1,5.072649E0,9.580742E0,4.3225036E0,4.952981E0,4.627761E0],"tree_param":{"num_deleted":"0","num_feature":"18","num_nodes":"11","size_leaf_vector":"1"}},{"base_weights":[-2.3330307E-2,8.615693E-1,-6.158127E-1,4.7647145E-2,5.1682475E-3,-4.6278068E-1,-4.461735E-2,-2.2252813E-1,-4.3064144E-2,-3.8402457E-2,2.0353203E-3],"categories":[],"categories_nodes":[],"categories_segments":[],"categories_sizes":[],"default_left":[0,0,0,0,0,1,0,0,0,0,0],"id":50,"left_children":[1,3,5,-1,-1,7,-1,9,-1,-1,-1],"loss_changes":[1.7115583E1,8.092699E-1,4.1354227E-1,0E0,0E0,1.2109597E0,0E0,1.5373694E0,0E0,0E0,0E0],"parents":[2147483647,0,0,1,1,2,2,5,5,7,7],"right_children":[2,4,6,-1,-1,8,-1,10,-1,-1,-1],"split_conditions":[1E0,3.694E2,4.5E0,4.7647145E-2,5.1682475E-3,9.66E1,-4.461735E-2,3.5331694E-3,-4.3064144E-2,-3.8402457E-2,2.0353203E-3],"split_indices":[11,6,5,0,0,6,0,9,0,0,0],"split_type":[0,0,0,0,0,0,0,0,0,0,0],"sum_hessian":[3.0633446E1,1.2102957E1,1.8530487E1,1.0572045E1,1.530912E0,1.3650115E1,4.880373E0,9.488197E0,4.1619177E0,2.4640408E0,7.0241566E0],"tree_param":{"num_deleted":"0","num_feature":"18","num_nodes":"11","size_leaf_vector":"1"}},{"base_weights":[-2.5041955E-2,8.5302883E-1,-6.0447997E-1,4.7372278E-2,5.0176512E-3,-2.9878244E-1,-7.117848E-1,1.5504286E-1,-3.8748216E-2,-2.2749592E-1,-4.317604E-2,-2.8610095E-2,2.971211E-2,-2.4528172E-2,1.5295157E-2],"categories":[],"categories_nodes":[],"categories_segments":[],"categories_sizes":[],"default_left":[0,0,0,0,0,0,1,0,0,0,0,0,0,0,0],"id":51,"left_children":[1,3,5,-1,-1,7,9,11,-1,13,-1,-1,-1,-1,-1],"loss_changes":[1.617053E1,8.0368614E-1,4.1458464E-1,0E0,0E0,1.5662377E0,7.9046583E-1,1.7005457E0,0E0,7.901684E-1,0E0,0E0,0E0,0E0,0E0],"parents":[2147483647,0,0,1,1,2,2,5,5,6,6,7,7,9,9],"right_children":[2,4,6,-1,-1,8,10,12,-1,14,-1,-1,-1,-1,-1],"split_conditions":[1E0,3.694E2,5.9403E4,4.7372278E-2,5.0176512E-3,4.3E0,7.6E1,9.073E3,-3.8748216E-2,7.2348E4,-4.317604E-2,-2.8610095E-2,2.971211E-2,-2.4528172E-2,1.5295157E-2],"split_indices":[11,6,0,0,0,5,6,2,0,0,0,0,0,0,0],"split_type":[0,0,0,0,0,0,0,0,0,0,0,0,0,0,0],"sum_hessian":[2.976901E1,1.1647069E1,1.812194E1,1.0118963E1,1.5281062E0,5.6916347E0,1.2430306E1,3.2595365E0,2.4320982E0,3.5617423E0,8.868564E0,1.1132841E0,2.1462524E0,2.4391053E0,1.1226372E0],"tree_param":{"num_deleted":"0","num_feature":"18","num_nodes":"15","size_leaf_vector":"1"}},{"base_weights":[-2.5735369E-2,8.4442E-1,-5.9309E-1,4.7096528E-2,4.8714033E-3,-4.3985847E-1,-4.383217E-2,-2.047758E-1,-4.2252325E-2,-3.749876E-2,2.4040884E-3],"categories":[],"categories_nodes":[],"categories_segments":[],"categories_sizes":[],"default_left":[0,0,0,0,0,1,0,0,0,0,0],"id":52,"left_children":[1,3,5,-1,-1,7,-1,9,-1,-1,-1],"loss_changes":[1.52595825E1,7.977104E-1,4.2618608E-1,0E0,0E0,1.1734514E0,0E0,1.451262E0,0E0,0E0,0E0],"parents":[2147483647,0,0,1,1,2,2,5,5,7,7],"right_children":[2,4,6,-1,-1,8,-1,10,-1,-1,-1],"split_conditions":[1E0,3.694E2,4.5E0,4.7096528E-2,4.8714033E-3,9.66E1,-4.383217E-2,3.5331694E-3,-4.2252325E-2,-3.749876E-2,2.4040884E-3],"split_indices":[11,6,5,0,0,6,0,9,0,0,0],"split_type":[0,0,0,0,0,0,0,0,0,0,0],"sum_hessian":[2.8895006E1,1.1211505E1,1.76835E1,9.686135E0,1.5253699E0,1.313605E1,4.547451E0,9.265665E0,3.8703852E0,2.3128371E0,6.952828E0],"tree_param":{"num_deleted":"0","num_feature":"18","num_nodes":"11","size_leaf_vector":"1"}},{"base_weights":[-2.743627E-2,8.357375E-1,-5.8205265E-1,4.681947E-2,4.729414E-3,-4.298709E-1,-4.3405708E-2,-1.993099E-1,-4.1822676E-2,-3.7035566E-2,2.2957223E-3],"categories":[],"categories_nodes":[],"categories_segments":[],"categories_sizes":[],"default_left":[0,0,0,0,0,1,0,0,0,0,0],"id":53,"left_children":[1,3,5,-1,-1,7,-1,9,-1,-1,-1],"loss_changes":[1.4419168E1,7.913389E-1,4.2383814E-1,0E0,0E0,1.1392512E0,0E0,1.3886021E0,0E0,0E0,0E0],"parents":[2147483647,0,0,1,1,2,2,5,5,7,7],"right_children":[2,4,6,-1,-1,8,-1,10,-1,-1,-1],"split_conditions":[1E0,3.694E2,4.5E0,4.681947E-2,4.729414E-3,9.66E1,-4.3405708E-2,3.5331694E-3,-4.1822676E-2,-3.7035566E-2,2.2957223E-3],"split_indices":[11,6,5,0,0,6,0,9,0,0,0],"split_type":[0,0,0,0,0,0,0,0,0,0,0],"sum_hessian":[2.8103497E1,1.0795348E1,1.730815E1,9.272646E0,1.5227022E0,1.2931465E1,4.3766837E0,9.2029505E0,3.7285142E0,2.2390578E0,6.963893E0],"tree_param":{"num_deleted":"0","num_feature":"18","num_nodes":"11","size_leaf_vector":"1"}},{"base_weights":[-2.911953E-2,8.2697964E-1,-5.711586E-1,4.65408E-2,4.591539E-3,-2.6517054E-1,-6.8190783E-1,1.6730785E-1,-3.7377518E-2,-2.0443799E-1,-8.40485E-1,-2.7437327E-2,2.8749594E-2,-3.0121226E-2,7.3986137E-3,-4.612265E-2,-1.6394434E-2],"categories":[],"categories_nodes":[],"categories_segments":[],"categories_sizes":[],"default_left":[0,0,0,0,0,0,1,0,0,0,0,0,0,0,0,0,0],"id":54,"left_children":[1,3,5,-1,-1,7,9,11,-1,13,15,-1,-1,-1,-1,-1,-1],"loss_changes":[1.3625982E1,7.8458023E-1,4.2740345E-1,0E0,0E0,1.4614985E0,7.778039E-1,1.5401071E0,0E0,7.130449E-1,7.9622746E-2,0E0,0E0,0E0,0E0,0E0,0E0],"parents":[2147483647,0,0,1,1,2,2,5,5,6,6,7,7,9,9,10,10],"right_children":[2,4,6,-1,-1,8,10,12,-1,14,16,-1,-1,-1,-1,-1,-1],"split_conditions":[1E0,3.694E2,5.9403E4,4.65408E-2,4.591539E-3,4.3E0,7.6E1,9.073E3,-3.7377518E-2,7.57E1,4.4E0,-2.7437327E-2,2.8749594E-2,-3.0121226E-2,7.3986137E-3,-4.612265E-2,-1.6394434E-2],"split_indices":[11,6,0,0,0,5,6,2,0,6,5,0,0,0,0,0,0],"split_type":[0,0,0,0,0,0,0,0,0,0,0,0,0,0,0,0,0],"sum_hessian":[2.734598E1,1.03978615E1,1.6948118E1,8.87776E0,1.5201018E0,5.406071E0,1.1542047E1,3.1948683E0,2.2112026E0,3.4483616E0,8.093685E0,1.0335451E0,2.1613233E0,1.2862846E0,2.1620772E0,6.2885313E0,1.8051537E0],"tree_param":{"num_deleted":"0","num_feature":"18","num_nodes":"17","size_leaf_vector":"1"}},{"base_weights":[-3.0937975E-2,8.1814337E-1,-5.611662E-1,4.626016E-2,4.457654E-3,-4.0845346E-1,-4.2701032E-2,-1.8457635E-1,-4.0981203E-2,-3.6129277E-2,2.4728437E-3],"categories":[],"categories_nodes":[],"categories_segments":[],"categories_sizes":[],"default_left":[0,0,0,0,0,1,0,0,0,0,0],"id":55,"left_children":[1,3,5,-1,-1,7,-1,9,-1,-1,-1],"loss_changes":[1.288659E1,7.7743864E-1,4.3764973E-1,0E0,0E0,1.089124E0,0E0,1.2967836E0,0E0,0E0,0E0],"parents":[2147483647,0,0,1,1,2,2,5,5,7,7],"right_children":[2,4,6,-1,-1,8,-1,10,-1,-1,-1],"split_conditions":[1E0,3.694E2,4.5E0,4.626016E-2,4.457654E-3,9.66E1,-4.2701032E-2,3.5331694E-3,-4.0981203E-2,-3.6129277E-2,2.4728437E-3],"split_indices":[11,6,5,0,0,6,0,9,0,0,0],"split_type":[0,0,0,0,0,0,0,0,0,0,0],"sum_hessian":[2.6603916E1,1.0018225E1,1.6585691E1,8.500657E0,1.517567E0,1.2475113E1,4.11058E0,9.015301E0,3.4598114E0,2.1000502E0,6.915251E0],"tree_param":{"num_deleted":"0","num_feature":"18","num_nodes":"11","size_leaf_vector":"1"}},{"base_weights":[-3.257582E-2,8.0922705E-1,-5.5056405E-1,4.5977246E-2,4.32766E-3,-3.991514E-1,-4.227871E-2,-1.7980254E-1,-4.055442E-2,-2.560526E-2,8.598031E-3],"categories":[],"categories_nodes":[],"categories_segments":[],"categories_sizes":[],"default_left":[0,0,0,0,0,1,0,0,0,0,0],"id":56,"left_children":[1,3,5,-1,-1,7,-1,9,-1,-1,-1],"loss_changes":[1.2179351E1,7.699213E-1,4.3319607E-1,0E0,0E0,1.0555747E0,0E0,1.2524242E0,0E0,0E0,0E0],"parents":[2147483647,0,0,1,1,2,2,5,5,7,7],"right_children":[2,4,6,-1,-1,8,-1,10,-1,-1,-1],"split_conditions":[1E0,3.694E2,4.5E0,4.5977246E-2,4.32766E-3,9.66E1,-4.227871E-2,8.33801E-3,-4.055442E-2,-2.560526E-2,8.598031E-3],"split_indices":[11,6,5,0,0,6,0,9,0,0,0],"split_type":[0,0,0,0,0,0,0,0,0,0,0],"sum_hessian":[2.5909718E1,9.655666E0,1.6254051E1,8.14057E0,1.5150971E0,1.2296127E1,3.957923E0,8.961026E0,3.3351014E0,4.3735805E0,4.5874457E0],"tree_param":{"num_deleted":"0","num_feature":"18","num_nodes":"11","size_leaf_vector":"1"}},{"base_weights":[-3.3598296E-2,8.00231E-1,-5.39742E-1,4.5691814E-2,4.2014304E-3,-2.3455225E-1,-6.5330404E-1,1.7753954E-1,-3.606814E-2,-1.8132E-1,-8.186395E-1,-1.4684431E-2,3.768682E-2,-2.8729895E-2,7.314293E-3,-4.5344334E-2,-1.4439732E-2],"categories":[],"categories_nodes":[],"categories_segments":[],"categories_sizes":[],"default_left":[0,0,0,0,0,0,1,0,0,0,0,0,0,0,0,0,0],"id":57,"left_children":[1,3,5,-1,-1,7,9,11,-1,13,15,-1,-1,-1,-1,-1,-1],"loss_changes":[1.1500762E1,7.6203775E-1,4.3309784E-1,0E0,0E0,1.3614352E0,7.700138E-1,1.343296E0,0E0,6.4294004E-1,1.3234377E-1,0E0,0E0,0E0,0E0,0E0,0E0],"parents":[2147483647,0,0,1,1,2,2,5,5,6,6,7,7,9,9,10,10],"right_children":[2,4,6,-1,-1,8,10,12,-1,14,16,-1,-1,-1,-1,-1,-1],"split_conditions":[1E0,3.694E2,5.9403E4,4.5691814E-2,4.2014304E-3,4.3E0,7.6E1,5.7261E4,-3.606814E-2,7.57E1,4.4E0,-1.4684431E-2,3.768682E-2,-2.8729895E-2,7.314293E-3,-4.5344334E-2,-1.4439732E-2],"split_indices":[11,6,0,0,0,5,6,0,0,6,5,0,0,0,0,0,0],"split_type":[0,0,0,0,0,0,0,0,0,0,0,0,0,0,0,0,0],"sum_hessian":[2.5227161E1,9.309503E0,1.5917659E1,7.7968116E0,1.5126907E0,5.1480527E0,1.0769607E1,3.132039E0,2.0160134E0,3.3378134E0,7.431793E0,1.9926765E0,1.1393627E0,1.1742463E0,2.163567E0,5.760721E0,1.6710722E0],"tree_param":{"num_deleted":"0","num_feature":"18","num_nodes":"17","size_leaf_vector":"1"}},{"base_weights":[-3.4454398E-2,7.911547E-1,-5.2854604E-1,4.540359E-2,4.0788637E-3,-3.7633172E-1,-4.158921E-2,-1.6287397E-1,-3.970356E-2,-3.499415E-2,2.9462941E-3],"categories":[],"categories_nodes":[],"categories_segments":[],"categories_sizes":[],"default_left":[0,0,0,0,0,1,0,0,0,0,0],"id":58,"left_children":[1,3,5,-1,-1,7,-1,9,-1,-1,-1],"loss_changes":[1.0854475E1,7.5379705E-1,4.534049E-1,0E0,0E0,1.0193228E0,0E0,1.2065284E0,0E0,0E0,0E0],"parents":[2147483647,0,0,1,1,2,2,5,5,7,7],"right_children":[2,4,6,-1,-1,8,-1,10,-1,-1,-1],"split_conditions":[1E0,3.694E2,4.5E0,4.540359E-2,4.0788637E-3,9.66E1,-4.158921E-2,3.5331694E-3,-3.970356E-2,-3.499415E-2,2.9462941E-3],"split_indices":[11,6,5,0,0,6,0,9,0,0,0],"split_type":[0,0,0,0,0,0,0,0,0,0,0],"sum_hessian":[2.4583807E1,8.978998E0,1.5604808E1,7.4686522E0,1.5103462E0,1.1881684E1,3.7231236E0,8.783406E0,3.0982776E0,1.9373456E0,6.846061E0],"tree_param":{"num_deleted":"0","num_feature":"18","num_nodes":"11","size_leaf_vector":"1"}},{"base_weights":[-3.6041185E-2,7.8199947E-1,-5.184269E-1,4.5112364E-2,3.959856E-3,-3.6777714E-1,-4.1169476E-2,-1.5886094E-1,-3.927928E-2,-3.4554366E-2,2.8128854E-3],"categories":[],"categories_nodes":[],"categories_segments":[],"categories_sizes":[],"default_left":[0,0,0,0,0,1,0,0,0,0,0],"id":59,"left_children":[1,3,5,-1,-1,7,-1,9,-1,-1,-1],"loss_changes":[1.0261357E1,7.4521065E-1,4.4663E-1,0E0,0E0,9.8602986E-1,0E0,1.1537349E0,0E0,0E0,0E0],"parents":[2147483647,0,0,1,1,2,2,5,5,7,7],"right_children":[2,4,6,-1,-1,8,-1,10,-1,-1,-1],"split_conditions":[1E0,3.694E2,4.5E0,4.5112364E-2,3.959856E-3,9.66E1,-4.1169476E-2,3.5331694E-3,-3.927928E-2,-3.4554366E-2,2.8128854E-3],"split_indices":[11,6,5,0,0,6,0,9,0,0,0],"split_type":[0,0,0,0,0,0,0,0,0,0,0],"sum_hessian":[2.3976355E1,8.663495E0,1.5312859E1,7.155432E0,1.5080628E0,1.17261715E1,3.5866873E0,8.737431E0,2.9887414E0,1.878136E0,6.8592944E0],"tree_param":{"num_deleted":"0","num_feature":"18","num_nodes":"11","size_leaf_vector":"1"}},{"base_weights":[-3.7601385E-2,7.7276546E-1,-5.084618E-1,4.4817884E-2,3.8443112E-3,-2.0244633E-1,-6.2623894E-1,-5.643595E-1,1.5657252E-2,-1.6589002E-1,-7.966737E-1,-3.4979563E-2,-4.5804936E-3,-2.0921718E-2,1.36608435E-2,-4.4573415E-2,-1.2546131E-2],"categories":[],"categories_nodes":[],"categories_segments":[],"categories_sizes":[],"default_left":[0,0,0,0,0,0,1,0,0,0,0,0,0,0,0,0,0],"id":60,"left_children":[1,3,5,-1,-1,7,9,11,-1,13,15,-1,-1,-1,-1,-1,-1],"loss_changes":[9.701407E0,7.3628855E-1,4.5107365E-1,0E0,0E0,1.2839054E0,7.3870087E-1,1.8160617E-1,0E0,5.8695596E-1,1.8177652E-1,0E0,0E0,0E0,0E0,0E0,0E0],"parents":[2147483647,0,0,1,1,2,2,5,5,6,6,7,7,9,9,10,10],"right_children":[2,4,6,-1,-1,8,10,12,-1,14,16,-1,-1,-1,-1,-1,-1],"split_conditions":[1E0,3.694E2,5.9403E4,4.4817884E-2,3.8443112E-3,8.37E1,7.6E1,5.6863E4,1.5657252E-2,7.2348E4,4.4E0,-3.4979563E-2,-4.5804936E-3,-2.0921718E-2,1.36608435E-2,-4.4573415E-2,-1.2546131E-2],"split_indices":[11,6,0,0,0,6,6,0,0,0,5,0,0,0,0,0,0],"split_type":[0,0,0,0,0,0,0,0,0,0,0,0,0,0,0,0,0],"sum_hessian":[2.3395247E1,8.3622875E0,1.503296E1,6.856448E0,1.5058391E0,4.9334574E0,1.0099503E1,2.8431532E0,2.0903044E0,3.262024E0,6.837478E0,1.837652E0,1.0055013E0,2.1008418E0,1.1611822E0,5.285875E0,1.5516037E0],"tree_param":{"num_deleted":"0","num_feature":"18","num_nodes":"17","size_leaf_vector":"1"}},{"base_weights":[-3.8243048E-2,7.634571E-1,-4.9796438E-1,4.4520047E-2,3.7321076E-3,-3.457325E-1,-4.0574823E-2,-1.4211284E-1,-3.8445525E-2,-3.371575E-2,3.2683373E-3],"categories":[],"categories_nodes":[],"categories_segments":[],"categories_sizes":[],"default_left":[0,0,0,0,0,1,0,0,0,0,0],"id":61,"left_children":[1,3,5,-1,-1,7,-1,9,-1,-1,-1],"loss_changes":[9.158158E0,7.270479E-1,4.7080946E-1,0E0,0E0,9.539714E-1,0E0,1.0994279E0,0E0,0E0,0E0],"parents":[2147483647,0,0,1,1,2,2,5,5,7,7],"right_children":[2,4,6,-1,-1,8,-1,10,-1,-1,-1],"split_conditions":[1E0,3.694E2,4.5E0,4.4520047E-2,3.7321076E-3,9.66E1,-4.0574823E-2,3.5331694E-3,-3.8445525E-2,-3.371575E-2,3.2683373E-3],"split_indices":[11,6,5,0,0,6,0,9,0,0,0],"split_type":[0,0,0,0,0,0,0,0,0,0,0],"sum_hessian":[2.2817059E1,8.0748205E0,1.4742237E1,6.5711474E0,1.5036736E0,1.1339283E1,3.4029546E0,8.557507E0,2.7817757E0,1.7692375E0,6.7882695E0],"tree_param":{"num_deleted":"0","num_feature":"18","num_nodes":"11","size_leaf_vector":"1"}},{"base_weights":[-3.975548E-2,7.540744E-1,-4.8833862E-1,4.4218596E-2,3.6231712E-3,-3.3793503E-1,-4.015658E-2,-1.3884361E-1,-3.8023483E-2,-2.3116073E-2,8.828461E-3],"categories":[],"categories_nodes":[],"categories_segments":[],"categories_sizes":[],"default_left":[0,0,0,0,0,1,0,0,0,0,0],"id":62,"left_children":[1,3,5,-1,-1,7,-1,9,-1,-1,-1],"loss_changes":[8.660104E0,7.174983E-1,4.617412E-1,0E0,0E0,9.211246E-1,0E0,1.0528781E0,0E0,0E0,0E0],"parents":[2147483647,0,0,1,1,2,2,5,5,7,7],"right_children":[2,4,6,-1,-1,8,-1,10,-1,-1,-1],"split_conditions":[1E0,3.694E2,4.5E0,4.4218596E-2,3.6231712E-3,9.66E1,-4.015658E-2,8.33801E-3,-3.8023483E-2,-2.3116073E-2,8.828461E-3],"split_indices":[11,6,5,0,0,6,0,9,0,0,0],"split_type":[0,0,0,0,0,0,0,0,0,0,0],"sum_hessian":[2.2285288E1,7.8003955E0,1.4484892E1,6.2988305E0,1.5015652E0,1.1204876E1,3.2800157E0,8.519312E0,2.685564E0,3.975941E0,4.5433707E0],"tree_param":{"num_deleted":"0","num_feature":"18","num_nodes":"11","size_leaf_vector":"1"}},{"base_weights":[-4.0572852E-2,7.4462396E-1,-4.7839722E-1,4.391351E-2,3.5173863E-3,-3.9764833E-2,-3.2913014E-1,7.9189405E-2,-5.0203484E-1,2.3792082E-2,-2.8713766E-2,-4.968012E-3,-3.4813266E-2],"categories":[],"categories_nodes":[],"categories_segments":[],"categories_sizes":[],"default_left":[0,0,0,0,0,0,0,0,1,0,0,0,0],"id":63,"left_children":[1,3,5,-1,-1,-1,7,9,11,-1,-1,-1,-1],"loss_changes":[8.18024E0,7.076607E-1,4.582076E-1,0E0,0E0,0E0,8.906895E-1,1.4265077E0,6.037173E-1,0E0,0E0,0E0,0E0],"parents":[2147483647,0,0,1,1,2,2,6,6,7,7,8,8],"right_children":[2,4,6,-1,-1,-1,8,10,12,-1,-1,-1,-1],"split_conditions":[1E0,3.694E2,3.5441252E-3,4.391351E-2,3.5173863E-3,-3.9764833E-2,5.9403E4,4.3E0,7.8E1,2.3792082E-2,-2.8713766E-2,-4.968012E-3,-3.4813266E-2],"split_indices":[11,6,9,0,0,0,0,5,6,0,0,0,0],"split_type":[0,0,0,0,0,0,0,0,0,0,0,0,0],"sum_hessian":[2.1758898E1,7.538525E0,1.4220372E1,6.039013E0,1.4995124E0,3.1675456E0,1.1052826E1,3.449272E0,7.6035542E0,2.3155522E0,1.1337198E0,2.966021E0,4.637533E0],"tree_param":{"num_deleted":"0","num_feature":"18","num_nodes":"13","size_leaf_vector":"1"}},{"base_weights":[-4.1106246E-2,7.351075E-1,-4.686535E-1,4.3604594E-2,3.4146775E-3,-3.1916672E-1,-3.9439615E-2,-1.249682E-1,-3.7254106E-2,-3.2488145E-2,3.4554855E-3],"categories":[],"categories_nodes":[],"categories_segments":[],"categories_sizes":[],"default_left":[0,0,0,0,0,1,0,0,0,0,0],"id":64,"left_children":[1,3,5,-1,-1,7,-1,9,-1,-1,-1],"loss_changes":[7.7253823E0,6.975465E-1,4.6378493E-1,0E0,0E0,8.8885546E-1,0E0,9.97792E-1,0E0,0E0,0E0],"parents":[2147483647,0,0,1,1,2,2,5,5,7,7],"right_children":[2,4,6,-1,-1,8,-1,10,-1,-1,-1],"split_conditions":[1E0,3.694E2,4.5E0,4.3604594E-2,3.4146775E-3,9.66E1,-3.9439615E-2,3.5331694E-3,-3.7254106E-2,-3.2488145E-2,3.4554855E-3],"split_indices":[11,6,5,0,0,6,0,9,0,0,0],"split_type":[0,0,0,0,0,0,0,0,0,0,0],"sum_hessian":[2.124038E1,7.288578E0,1.3951801E1,5.791064E0,1.4975144E0,1.0872105E1,3.079697E0,8.355691E0,2.5164137E0,1.6219426E0,6.733748E0],"tree_param":{"num_deleted":"0","num_feature":"18","num_nodes":"11","size_leaf_vector":"1"}},{"base_weights":[-4.2550158E-2,7.255314E-1,-4.5954967E-1,4.3291822E-2,3.314952E-3,-3.120676E-1,-3.9022554E-2,-1.2232513E-1,-3.683475E-2,-3.2073278E-2,3.2984377E-3],"categories":[],"categories_nodes":[],"categories_segments":[],"categories_sizes":[],"default_left":[0,0,0,0,0,1,0,0,0,0,0],"id":65,"left_children":[1,3,5,-1,-1,7,-1,9,-1,-1,-1],"loss_changes":[7.3079286E0,6.8717575E-1,4.5336676E-1,0E0,0E0,8.569926E-1,0E0,9.537243E-1,0E0,0E0,0E0],"parents":[2147483647,0,0,1,1,2,2,5,5,7,7],"right_children":[2,4,6,-1,-1,8,-1,10,-1,-1,-1],"split_conditions":[1E0,3.694E2,4.5E0,4.3291822E-2,3.314952E-3,9.66E1,-3.9022554E-2,3.5331694E-3,-3.683475E-2,-3.2073278E-2,3.2984377E-3],"split_indices":[11,6,5,0,0,6,0,9,0,0,0],"split_type":[0,0,0,0,0,0,0,0,0,0,0],"sum_hessian":[2.0775637E1,7.050065E0,1.3725573E1,5.554496E0,1.4955695E0,1.0755128E1,2.9704444E0,8.323771E0,2.431356E0,1.5749075E0,6.748864E0],"tree_param":{"num_deleted":"0","num_feature":"18","num_nodes":"11","size_leaf_vector":"1"}},{"base_weights":[-4.39578E-2,7.1589863E-1,-4.5060834E-1,4.2975053E-2,3.2181237E-3,-1.5090816E-1,-5.72605E-1,-4.8402128E-1,1.9984417E-2,-1.3067868E-1,-7.5386643E-1,-3.1060935E-3,-3.399522E-2,-1.872521E-2,1.2791375E-2,-4.3170806E-2,-8.4450655E-3],"categories":[],"categories_nodes":[],"categories_segments":[],"categories_sizes":[],"default_left":[0,0,0,0,0,0,1,0,0,0,0,0,0,0,0,0,0],"id":66,"left_children":[1,3,5,-1,-1,7,9,11,-1,13,15,-1,-1,-1,-1,-1,-1],"loss_changes":[6.9138055E0,6.765628E-1,4.4406104E-1,0E0,0E0,1.2123432E0,6.9879866E-1,2.811833E-1,0E0,4.8264235E-1,2.930498E-1,0E0,0E0,0E0,0E0,0E0,0E0],"parents":[2147483647,0,0,1,1,2,2,5,5,6,6,7,7,9,9,10,10],"right_children":[2,4,6,-1,-1,8,10,12,-1,14,16,-1,-1,-1,-1,-1,-1],"split_conditions":[1E0,3.694E2,5.9403E4,4.2975053E-2,3.2181237E-3,5.7261E4,7.6E1,5.1827E4,1.9984417E-2,7.2348E4,4.4E0,-3.1060935E-3,-3.399522E-2,-1.872521E-2,1.2791375E-2,-4.3170806E-2,-8.4450655E-3],"split_indices":[11,6,0,0,0,0,6,0,0,0,5,0,0,0,0,0,0],"split_type":[0,0,0,0,0,0,0,0,0,0,0,0,0,0,0,0,0],"sum_hessian":[2.033107E1,6.8224134E0,1.3508657E1,5.3287363E0,1.4936769E0,4.555207E0,8.95345E0,2.9134638E0,1.6417428E0,3.104771E0,5.8486795E0,1.3414159E0,1.5720481E0,1.922821E0,1.1819499E0,4.5252066E0,1.3234729E0],"tree_param":{"num_deleted":"0","num_feature":"18","num_nodes":"17","size_leaf_vector":"1"}},{"base_weights":[-4.4025134E-2,7.062176E-1,-4.403716E-1,4.2654347E-2,3.1241158E-3,-2.9130897E-1,-3.8502008E-2,-1.0750436E-1,-3.5959143E-2,-3.1296667E-2,3.7112788E-3],"categories":[],"categories_nodes":[],"categories_segments":[],"categories_sizes":[],"default_left":[0,0,0,0,0,1,0,0,0,0,0],"id":67,"left_children":[1,3,5,-1,-1,7,-1,9,-1,-1,-1],"loss_changes":[6.5227537E0,6.6572976E-1,4.7765183E-1,0E0,0E0,8.2281166E-1,0E0,9.115252E-1,0E0,0E0,0E0],"parents":[2147483647,0,0,1,1,2,2,5,5,7,7],"right_children":[2,4,6,-1,-1,8,-1,10,-1,-1,-1],"split_conditions":[1E0,3.694E2,4.5E0,4.2654347E-2,3.1241158E-3,9.66E1,-3.8502008E-2,3.5331694E-3,-3.5959143E-2,-3.1296667E-2,3.7112788E-3],"split_indices":[11,6,5,0,0,6,0,9,0,0,0],"split_type":[0,0,0,0,0,0,0,0,0,0,0],"sum_hessian":[1.9889957E1,6.6051936E0,1.3284764E1,5.1133585E0,1.4918351E0,1.04454155E1,2.8393483E0,8.1819105E0,2.263505E0,1.489226E0,6.6926847E0],"tree_param":{"num_deleted":"0","num_feature":"18","num_nodes":"11","size_leaf_vector":"1"}},{"base_weights":[-4.5379072E-2,6.964921E-1,-4.3180192E-1,4.23296E-2,3.032832E-3,-2.8497216E-1,-3.808604E-2,-1.0550578E-1,-3.5544064E-2,-2.0818157E-2,8.803869E-3],"categories":[],"categories_nodes":[],"categories_segments":[],"categories_sizes":[],"default_left":[0,0,0,0,0,1,0,0,0,0,0],"id":68,"left_children":[1,3,5,-1,-1,7,-1,9,-1,-1,-1],"loss_changes":[6.1727905E0,6.5469337E-1,4.652512E-1,0E0,0E0,7.921724E-1,0E0,8.7476045E-1,0E0,0E0,0E0],"parents":[2147483647,0,0,1,1,2,2,5,5,7,7],"right_children":[2,4,6,-1,-1,8,-1,10,-1,-1,-1],"split_conditions":[1E0,3.694E2,4.5E0,4.23296E-2,3.032832E-3,9.66E1,-3.808604E-2,8.33801E-3,-3.5544064E-2,-2.0818157E-2,8.803869E-3],"split_indices":[11,6,5,0,0,6,0,9,0,0,0],"split_type":[0,0,0,0,0,0,0,0,0,0,0],"sum_hessian":[1.9483212E1,6.397879E0,1.3085333E1,4.9078364E0,1.4900429E0,1.0345053E1,2.74028E0,8.15604E0,2.1890123E0,3.6490138E0,4.5070267E0],"tree_param":{"num_deleted":"0","num_feature":"18","num_nodes":"11","size_leaf_vector":"1"}},{"base_weights":[-4.5972876E-2,6.8672985E-1,-4.228256E-1,4.200086E-2,2.9442017E-3,-2.7787912E-1,-3.767073E-2,-1.02097854E-1,-3.5130657E-2,-3.0626578E-2,3.585954E-3],"categories":[],"categories_nodes":[],"categories_segments":[],"categories_sizes":[],"default_left":[0,0,0,0,0,1,0,0,0,0,0],"id":69,"left_children":[1,3,5,-1,-1,7,-1,9,-1,-1,-1],"loss_changes":[5.834013E0,6.434746E-1,4.555881E-1,0E0,0E0,7.668059E-1,0E0,8.525256E-1,0E0,0E0,0E0],"parents":[2147483647,0,0,1,1,2,2,5,5,7,7],"right_children":[2,4,6,-1,-1,8,-1,10,-1,-1,-1],"split_conditions":[1E0,3.694E2,4.5E0,4.200086E-2,2.9442017E-3,9.66E1,-3.767073E-2,3.5331694E-3,-3.5130657E-2,-3.0626578E-2,3.585954E-3],"split_indices":[11,6,5,0,0,6,0,9,0,0,0],"split_type":[0,0,0,0,0,0,0,0,0,0,0],"sum_hessian":[1.9076872E1,6.200045E0,1.2876826E1,4.711746E0,1.4882993E0,1.0231424E1,2.6454024E0,8.113808E0,2.1176162E0,1.4199514E0,6.6938567E0],"tree_param":{"num_deleted":"0","num_feature":"18","num_nodes":"11","size_leaf_vector":"1"}},{"base_weights":[-4.7264874E-2,6.7693657E-1,-4.1460785E-1,4.1668117E-2,2.8581526E-3,-3.7286624E-2,-2.7156335E-1,1.0923502E-1,-4.456741E-1,-1.45335635E-2,2.7578268E-2,-3.569821E-3,-3.2269735E-2],"categories":[],"categories_nodes":[],"categories_segments":[],"categories_sizes":[],"default_left":[0,0,0,0,0,0,0,0,1,0,0,0,0],"id":70,"left_children":[1,3,5,-1,-1,-1,7,9,11,-1,-1,-1,-1],"loss_changes":[5.5227666E0,6.3209105E-1,4.4609523E-1,0E0,0E0,0E0,7.869702E-1,9.204289E-1,5.3984416E-1,0E0,0E0,0E0,0E0],"parents":[2147483647,0,0,1,1,2,2,6,6,7,7,8,8],"right_children":[2,4,6,-1,-1,-1,8,10,12,-1,-1,-1,-1],"split_conditions":[1E0,3.694E2,3.5441252E-3,4.1668117E-2,2.8581526E-3,-3.7286624E-2,5.9403E4,5.7112E4,7.8E1,-1.45335635E-2,2.7578268E-2,-3.569821E-3,-3.2269735E-2],"split_indices":[11,6,9,0,0,0,0,0,6,0,0,0,0],"split_type":[0,0,0,0,0,0,0,0,0,0,0,0,0],"sum_hessian":[1.870491E1,6.0112295E0,1.2693681E1,4.5246267E0,1.486603E0,2.5583134E0,1.0135367E1,3.2970302E0,6.8383374E0,1.9116192E0,1.3854111E0,2.851705E0,3.986632E0],"tree_param":{"num_deleted":"0","num_feature":"18","num_nodes":"13","size_leaf_vector":"1"}},{"base_weights":[-4.6587538E-2,6.671206E-1,-4.0431345E-1,4.1331466E-2,2.7746044E-3,-2.5966817E-1,-3.707408E-2,-8.892695E-2,-3.4342643E-2,-2.9750913E-2,3.8414653E-3],"categories":[],"categories_nodes":[],"categories_segments":[],"categories_sizes":[],"default_left":[0,0,0,0,0,1,0,0,0,0,0],"id":71,"left_children":[1,3,5,-1,-1,7,-1,9,-1,-1,-1],"loss_changes":[5.204801E0,6.205652E-1,4.657824E-1,0E0,0E0,7.4015087E-1,0E0,8.0045E-1,0E0,0E0,0E0],"parents":[2147483647,0,0,1,1,2,2,5,5,7,7],"right_children":[2,4,6,-1,-1,8,-1,10,-1,-1,-1],"split_conditions":[1E0,3.694E2,4.5E0,4.1331466E-2,2.7746044E-3,9.66E1,-3.707408E-2,3.5331694E-3,-3.4342643E-2,-2.9750913E-2,3.8414653E-3],"split_indices":[11,6,5,0,0,6,0,9,0,0,0],"split_type":[0,0,0,0,0,0,0,0,0,0,0],"sum_hessian":[1.8329596E1,5.8310413E0,1.2498553E1,4.3460884E0,1.4849529E0,9.98509E0,2.5134633E0,7.996959E0,1.9881308E0,1.3340586E0,6.662901E0],"tree_param":{"num_deleted":"0","num_feature":"18","num_nodes":"11","size_leaf_vector":"1"}},{"base_weights":[-4.7837775E-2,6.5728796E-1,-3.9648223E-1,4.099091E-2,2.693492E-3,-2.5423458E-1,-3.666038E-2,-8.761486E-2,-3.393478E-2,-1.9430643E-2,8.62345E-3],"categories":[],"categories_nodes":[],"categories_segments":[],"categories_sizes":[],"default_left":[0,0,0,0,0,1,0,0,0,0,0],"id":72,"left_children":[1,3,5,-1,-1,7,-1,9,-1,-1,-1],"loss_changes":[4.928981E0,6.089151E-1,4.521067E-1,0E0,0E0,7.1159256E-1,0E0,7.6981276E-1,0E0,0E0,0E0],"parents":[2147483647,0,0,1,1,2,2,5,5,7,7],"right_children":[2,4,6,-1,-1,8,-1,10,-1,-1,-1],"split_conditions":[1E0,3.694E2,4.5E0,4.099091E-2,2.693492E-3,9.66E1,-3.666038E-2,8.33801E-3,-3.393478E-2,-1.9430643E-2,8.62345E-3],"split_indices":[11,6,5,0,0,6,0,9,0,0,0],"split_type":[0,0,0,0,0,0,0,0,0,0,0],"sum_hessian":[1.7989641E1,5.6590567E0,1.2330585E1,4.1757083E0,1.483348E0,9.902396E0,2.4281878E0,7.9773483E0,1.9250484E0,3.4687462E0,4.508602E0],"tree_param":{"num_deleted":"0","num_feature":"18","num_nodes":"11","size_leaf_vector":"1"}},{"base_weights":[-4.8293635E-2,6.474468E-1,-3.8818496E-1,4.064657E-2,2.6147251E-3,-2.4797018E-1,-3.6247693E-2,1.07302934E-1,-4.180923E-1,-1.6300997E-2,3.257825E-2,3.2993045E-3,-3.2732885E-2],"categories":[],"categories_nodes":[],"categories_segments":[],"categories_sizes":[],"default_left":[0,0,0,0,0,0,0,0,1,0,0,0,0],"id":73,"left_children":[1,3,5,-1,-1,7,-1,9,11,-1,-1,-1,-1],"loss_changes":[4.661033E0,5.9716225E-1,4.413011E-1,0E0,0E0,6.9798464E-1,0E0,1.2253097E0,9.033723E-1,0E0,0E0,0E0,0E0],"parents":[2147483647,0,0,1,1,2,2,5,5,7,7,8,8],"right_children":[2,4,6,-1,-1,8,-1,10,12,-1,-1,-1,-1],"split_conditions":[1E0,3.694E2,4.5E0,4.064657E-2,2.6147251E-3,5.9403E4,-3.6247693E-2,5.7261E4,7.6E1,-1.6300997E-2,3.257825E-2,3.2993045E-3,-3.2732885E-2],"split_indices":[11,6,5,0,0,0,0,0,6,0,0,0,0],"split_type":[0,0,0,0,0,0,0,0,0,0,0,0,0],"sum_hessian":[1.7647564E1,5.494906E0,1.2152658E1,4.013119E0,1.4817867E0,9.806156E0,2.3465028E0,3.294783E0,6.511373E0,2.0575886E0,1.2371945E0,2.3741896E0,4.1371837E0],"tree_param":{"num_deleted":"0","num_feature":"18","num_nodes":"13","size_leaf_vector":"1"}},{"base_weights":[-4.711102E-2,6.3760465E-1,-3.7811506E-1,4.0298544E-2,2.5382629E-3,-3.5939574E-2,-2.3797461E-1,1.2223372E-1,-4.1149443E-1,-1.3369421E-2,2.6770739E-2,-2.8641073E-3,-3.0625045E-2],"categories":[],"categories_nodes":[],"categories_segments":[],"categories_sizes":[],"default_left":[0,0,0,0,0,0,0,0,1,0,0,0,0],"id":74,"left_children":[1,3,5,-1,-1,-1,7,9,11,-1,-1,-1,-1],"loss_changes":[4.3902855E0,5.853255E-1,4.4811547E-1,0E0,0E0,0E0,7.180773E-1,8.264482E-1,4.9459815E-1,0E0,0E0,0E0,0E0],"parents":[2147483647,0,0,1,1,2,2,6,6,7,7,8,8],"right_children":[2,4,6,-1,-1,-1,8,10,12,-1,-1,-1,-1],"split_conditions":[1E0,3.694E2,3.5441252E-3,4.0298544E-2,2.5382629E-3,-3.5939574E-2,5.9403E4,5.7112E4,7.8E1,-1.3369421E-2,2.6770739E-2,-2.8641073E-3,-3.0625045E-2],"split_indices":[11,6,9,0,0,0,0,0,6,0,0,0,0],"split_type":[0,0,0,0,0,0,0,0,0,0,0,0,0],"sum_hessian":[1.7307144E1,5.3382187E0,1.1968925E1,3.85795E0,1.4802687E0,2.2850266E0,9.683899E0,3.244413E0,6.4394855E0,1.8514159E0,1.392997E0,2.7964957E0,3.6429899E0],"tree_param":{"num_deleted":"0","num_feature":"18","num_nodes":"13","size_leaf_vector":"1"}},{"base_weights":[-4.6293158E-2,6.277704E-1,-3.685413E-1,3.994699E-2,2.4640218E-3,-2.2814213E-1,-3.5664003E-2,-6.79059E-2,-3.281619E-2,-1.8415293E-2,9.175879E-3],"categories":[],"categories_nodes":[],"categories_segments":[],"categories_sizes":[],"default_left":[0,0,0,0,0,1,0,0,0,0,0],"id":75,"left_children":[1,3,5,-1,-1,7,-1,9,-1,-1,-1],"loss_changes":[4.139108E0,5.7342815E-1,4.56877E-1,0E0,0E0,6.8043613E-1,0E0,7.325985E-1,0E0,0E0,0E0],"parents":[2147483647,0,0,1,1,2,2,5,5,7,7],"right_children":[2,4,6,-1,-1,8,-1,10,-1,-1,-1],"split_conditions":[1E0,3.694E2,4.5E0,3.994699E-2,2.4640218E-3,9.66E1,-3.5664003E-2,8.33801E-3,-3.281619E-2,-1.8415293E-2,9.175879E-3],"split_indices":[11,6,5,0,0,6,0,9,0,0,0],"split_type":[0,0,0,0,0,0,0,0,0,0,0],"sum_hessian":[1.6990171E1,5.1886663E0,1.1801505E1,3.7098742E0,1.4787923E0,9.567004E0,2.2345006E0,7.8048334E0,1.762171E0,3.3442512E0,4.4605823E0],"tree_param":{"num_deleted":"0","num_feature":"18","num_nodes":"11","size_leaf_vector":"1"}},{"base_weights":[-4.671618E-2,6.179524E-1,-3.6083716E-1,3.959207E-2,2.3919435E-3,-2.2261909E-1,-3.5253987E-2,-6.585074E-2,-3.2417234E-2,-2.8173912E-2,4.330303E-3],"categories":[],"categories_nodes":[],"categories_segments":[],"categories_sizes":[],"default_left":[0,0,0,0,0,1,0,0,0,0,0],"id":76,"left_children":[1,3,5,-1,-1,7,-1,9,-1,-1,-1],"loss_changes":[3.9164393E0,5.614898E-1,4.446547E-1,0E0,0E0,6.569617E-1,0E0,7.145245E-1,0E0,0E0,0E0],"parents":[2147483647,0,0,1,1,2,2,5,5,7,7],"right_children":[2,4,6,-1,-1,8,-1,10,-1,-1,-1],"split_conditions":[1E0,3.694E2,4.5E0,3.959207E-2,2.3919435E-3,9.66E1,-3.5253987E-2,3.5331694E-3,-3.2417234E-2,-2.8173912E-2,4.330303E-3],"split_indices":[11,6,5,0,0,6,0,9,0,0,0],"split_type":[0,0,0,0,0,0,0,0,0,0,0],"sum_hessian":[1.6690138E1,5.045917E0,1.1644221E1,3.5685606E0,1.4773566E0,9.483257E0,2.1609638E0,7.774916E0,1.708341E0,1.1911032E0,6.583813E0],"tree_param":{"num_deleted":"0","num_feature":"18","num_nodes":"11","size_leaf_vector":"1"}},{"base_weights":[-4.790814E-2,6.081542E-1,-3.5400712E-1,3.923377E-2,2.3219688E-3,-3.4877375E-2,-2.179321E-1,1.2864019E-1,-3.9021894E-1,-1.52515685E-2,2.3972405E-2,-2.382092E-3,-2.9607719E-2],"categories":[],"categories_nodes":[],"categories_segments":[],"categories_sizes":[],"default_left":[0,0,0,0,0,0,0,0,1,0,0,0,0],"id":77,"left_children":[1,3,5,-1,-1,-1,7,9,11,-1,-1,-1,-1],"loss_changes":[3.713397E0,5.495231E-1,4.3276787E-1,0E0,0E0,0E0,6.720607E-1,7.867796E-1,4.7018242E-1,0E0,0E0,0E0,0E0],"parents":[2147483647,0,0,1,1,2,2,6,6,7,7,8,8],"right_children":[2,4,6,-1,-1,-1,8,10,12,-1,-1,-1,-1],"split_conditions":[1E0,3.694E2,3.5441252E-3,3.923377E-2,2.3219688E-3,-3.4877375E-2,5.9403E4,7.99E1,7.8E1,-1.52515685E-2,2.3972405E-2,-2.382092E-3,-2.9607719E-2],"split_indices":[11,6,9,0,0,0,0,6,6,0,0,0,0],"split_type":[0,0,0,0,0,0,0,0,0,0,0,0,0],"sum_hessian":[1.6419111E1,4.9095907E0,1.15095215E1,3.43363E0,1.4759607E0,2.0947738E0,9.414747E0,3.210281E0,6.204467E0,1.4939442E0,1.7163368E0,2.7593102E0,3.4451563E0],"tree_param":{"num_deleted":"0","num_feature":"18","num_nodes":"13","size_leaf_vector":"1"}},{"base_weights":[-4.728364E-2,5.983865E-1,-3.4573445E-1,3.887238E-2,2.2540295E-3,-2.0944476E-1,-3.461292E-2,-5.7449125E-2,-3.1697344E-2,-2.7358016E-2,4.387479E-3],"categories":[],"categories_nodes":[],"categories_segments":[],"categories_sizes":[],"default_left":[0,0,0,0,0,1,0,0,0,0,0],"id":78,"left_children":[1,3,5,-1,-1,7,-1,9,-1,-1,-1],"loss_changes":[3.5067377E0,5.3755236E-1,4.3802667E-1,0E0,0E0,6.2776756E-1,0E0,6.651744E-1,0E0,0E0,0E0],"parents":[2147483647,0,0,1,1,2,2,5,5,7,7],"right_children":[2,4,6,-1,-1,8,-1,10,-1,-1,-1],"split_conditions":[1E0,3.694E2,4.5E0,3.887238E-2,2.2540295E-3,9.66E1,-3.461292E-2,3.5331694E-3,-3.1697344E-2,-2.7358016E-2,4.387479E-3],"split_indices":[11,6,5,0,0,6,0,9,0,0,0],"split_type":[0,0,0,0,0,0,0,0,0,0,0],"sum_hessian":[1.6124243E1,4.7794275E0,1.1344815E1,3.3048239E0,1.4746037E0,9.293894E0,2.0509217E0,7.679525E0,1.6143688E0,1.1231443E0,6.5563807E0],"tree_param":{"num_deleted":"0","num_feature":"18","num_nodes":"11","size_leaf_vector":"1"}},{"base_weights":[-4.8428774E-2,5.886582E-1,-3.392706E-1,3.8508125E-2,2.1880658E-3,-2.0555477E-1,-3.420693E-2,-5.7338867E-2,-3.1306323E-2,-2.7004212E-2,4.1867173E-3],"categories":[],"categories_nodes":[],"categories_segments":[],"categories_sizes":[],"default_left":[0,0,0,0,0,1,0,0,0,0,0],"id":79,"left_children":[1,3,5,-1,-1,7,-1,9,-1,-1,-1],"loss_changes":[3.3267326E0,5.25597E-1,4.2293775E-1,0E0,0E0,6.0216457E-1,0E0,6.3563764E-1,0E0,0E0,0E0],"parents":[2147483647,0,0,1,1,2,2,5,5,7,7],"right_children":[2,4,6,-1,-1,8,-1,10,-1,-1,-1],"split_conditions":[1E0,3.694E2,4.5E0,3.8508125E-2,2.1880658E-3,9.66E1,-3.420693E-2,3.5331694E-3,-3.1306323E-2,-2.7004212E-2,4.1867173E-3],"split_indices":[11,6,5,0,0,6,0,9,0,0,0],"split_type":[0,0,0,0,0,0,0,0,0,0,0],"sum_hessian":[1.5876206E1,4.6551504E0,1.1221056E1,3.1818664E0,1.473284E0,9.236012E0,1.9850438E0,7.669499E0,1.5665134E0,1.0947893E0,6.5747094E0],"tree_param":{"num_deleted":"0","num_feature":"18","num_nodes":"11","size_leaf_vector":"1"}},{"base_weights":[-4.952333E-2,5.789758E-1,-3.329557E-1,3.8141157E-2,2.1240257E-3,-2.0177417E-1,-3.380283E-2,1.20932445E-1,-3.6778805E-1,-1.5156715E-2,3.1134246E-2,3.1401801E-3,-3.0220557E-2],"categories":[],"categories_nodes":[],"categories_segments":[],"categories_sizes":[],"default_left":[0,0,0,0,0,0,0,0,1,0,0,0,0],"id":80,"left_children":[1,3,5,-1,-1,7,-1,9,11,-1,-1,-1,-1],"loss_changes":[3.1567254E0,5.136745E-1,4.0828872E-1,0E0,0E0,5.89872E-1,0E0,1.0846932E0,7.480732E-1,0E0,0E0,0E0,0E0],"parents":[2147483647,0,0,1,1,2,2,5,5,7,7,8,8],"right_children":[2,4,6,-1,-1,8,-1,10,12,-1,-1,-1,-1],"split_conditions":[1E0,3.694E2,4.5E0,3.8141157E-2,2.1240257E-3,5.9403E4,-3.380283E-2,5.7261E4,7.6E1,-1.5156715E-2,3.1134246E-2,3.1401801E-3,-3.0220557E-2],"split_indices":[11,6,5,0,0,0,0,0,6,0,0,0,0],"split_type":[0,0,0,0,0,0,0,0,0,0,0,0,0],"sum_hessian":[1.5638611E1,4.5364647E0,1.1102146E1,3.0644636E0,1.4720012E0,9.18025E0,1.9218961E0,3.2106905E0,5.9695597E0,1.9545826E0,1.2561079E0,2.377578E0,3.5919816E0],"tree_param":{"num_deleted":"0","num_feature":"18","num_nodes":"13","size_leaf_vector":"1"}},{"base_weights":[-4.811594E-2,5.6934655E-1,-3.2408231E-1,3.777169E-2,2.0618564E-3,-3.3512298E-2,-1.9320069E-1,1.330415E-1,-3.6198005E-1,-1.2534531E-2,2.6179334E-2,-2.1242434E-3,-2.8046576E-2],"categories":[],"categories_nodes":[],"categories_segments":[],"categories_sizes":[],"default_left":[0,0,0,0,0,0,0,0,1,0,0,0,0],"id":81,"left_children":[1,3,5,-1,-1,-1,7,9,11,-1,-1,-1,-1],"loss_changes":[2.9761107E0,5.018004E-1,4.123553E-1,0E0,0E0,0E0,6.033787E-1,7.5607485E-1,4.1566175E-1,0E0,0E0,0E0,0E0],"parents":[2147483647,0,0,1,1,2,2,6,6,7,7,8,8],"right_children":[2,4,6,-1,-1,-1,8,10,12,-1,-1,-1,-1],"split_conditions":[1E0,3.694E2,3.5441252E-3,3.777169E-2,2.0618564E-3,-3.3512298E-2,5.9403E4,5.7112E4,7.8E1,-1.2534531E-2,2.6179334E-2,-2.1242434E-3,-2.8046576E-2],"split_indices":[11,6,9,0,0,0,0,0,6,0,0,0,0],"split_type":[0,0,0,0,0,0,0,0,0,0,0,0,0],"sum_hessian":[1.538271E1,4.4231057E0,1.0959605E1,2.9523518E0,1.4707541E0,1.8762293E0,9.083376E0,3.1692038E0,5.914172E0,1.7791712E0,1.3900324E0,2.7352278E0,3.1789443E0],"tree_param":{"num_deleted":"0","num_feature":"18","num_nodes":"13","size_leaf_vector":"1"}},{"base_weights":[-4.7043256E-2,5.5977654E-1,-3.1568745E-1,3.739988E-2,2.0014886E-3,-1.8495731E-1,-3.324427E-2,-4.3336164E-2,-3.024281E-2,-1.6658464E-2,9.294844E-3],"categories":[],"categories_nodes":[],"categories_segments":[],"categories_sizes":[],"default_left":[0,0,0,0,0,1,0,0,0,0,0],"id":82,"left_children":[1,3,5,-1,-1,7,-1,9,-1,-1,-1],"loss_changes":[2.8086338E0,4.8999083E-1,4.1707683E-1,0E0,0E0,5.6803834E-1,0E0,6.299816E-1,0E0,0E0,0E0],"parents":[2147483647,0,0,1,1,2,2,5,5,7,7],"right_children":[2,4,6,-1,-1,8,-1,10,-1,-1,-1],"split_conditions":[1E0,3.694E2,4.5E0,3.739988E-2,2.0014886E-3,9.66E1,-3.324427E-2,8.33801E-3,-3.024281E-2,-1.6658464E-2,9.294844E-3],"split_indices":[11,6,5,0,0,6,0,9,0,0,0],"split_type":[0,0,0,0,0,0,0,0,0,0,0],"sum_hessian":[1.5144901E1,4.3148065E0,1.0830095E1,2.8452644E0,1.4695419E0,8.993019E0,1.8370764E0,7.5498533E0,1.4431658E0,3.1339734E0,4.4158797E0],"tree_param":{"num_deleted":"0","num_feature":"18","num_nodes":"11","size_leaf_vector":"1"}},{"base_weights":[-4.730179E-2,5.502759E-1,-3.0921036E-1,3.7026092E-2,1.9428938E-3,-1.8072712E-1,-3.2845072E-2,-4.2195898E-2,-2.986418E-2,-1.6206212E-2,8.878344E-3],"categories":[],"categories_nodes":[],"categories_segments":[],"categories_sizes":[],"default_left":[0,0,0,0,0,1,0,0,0,0,0],"id":83,"left_children":[1,3,5,-1,-1,7,-1,9,-1,-1,-1],"loss_changes":[2.6619794E0,4.7826517E-1,4.0438485E-1,0E0,0E0,5.478033E-1,0E0,5.8590287E-1,0E0,0E0,0E0],"parents":[2147483647,0,0,1,1,2,2,5,5,7,7],"right_children":[2,4,6,-1,-1,8,-1,10,-1,-1,-1],"split_conditions":[1E0,3.694E2,4.5E0,3.7026092E-2,1.9428938E-3,9.66E1,-3.2845072E-2,8.33801E-3,-2.986418E-2,-1.6206212E-2,8.878344E-3],"split_indices":[11,6,5,0,0,6,0,9,0,0,0],"split_type":[0,0,0,0,0,0,0,0,0,0,0],"sum_hessian":[1.4921135E1,4.21136E0,1.0709776E1,2.742996E0,1.4683638E0,8.929737E0,1.7800381E0,7.5276256E0,1.4021119E0,3.0894115E0,4.438214E0],"tree_param":{"num_deleted":"0","num_feature":"18","num_nodes":"11","size_leaf_vector":"1"}},{"base_weights":[-4.7536366E-2,5.408477E-1,-3.0288735E-1,3.6650408E-2,1.8860021E-3,-3.2555703E-2,-1.7537177E-1,1.379492E-1,-3.420613E-1,-1.2131563E-2,2.5905946E-2,-1.5492752E-3,-2.7115876E-2],"categories":[],"categories_nodes":[],"categories_segments":[],"categories_sizes":[],"default_left":[0,0,0,0,0,0,0,0,1,0,0,0,0],"id":84,"left_children":[1,3,5,-1,-1,-1,7,9,11,-1,-1,-1,-1],"loss_changes":[2.5236511E0,4.6663332E-1,4.00643E-1,0E0,0E0,0E0,5.618944E-1,7.2397465E-1,4.0183026E-1,0E0,0E0,0E0,0E0],"parents":[2147483647,0,0,1,1,2,2,6,6,7,7,8,8],"right_children":[2,4,6,-1,-1,-1,8,10,12,-1,-1,-1,-1],"split_conditions":[1E0,3.694E2,3.5441252E-3,3.6650408E-2,1.8860021E-3,-3.2555703E-2,5.9403E4,5.7112E4,7.8E1,-1.2131563E-2,2.5905946E-2,-1.5492752E-3,-2.7115876E-2],"split_indices":[11,6,9,0,0,0,0,0,6,0,0,0,0],"split_type":[0,0,0,0,0,0,0,0,0,0,0,0,0],"sum_hessian":[1.4706637E1,4.112497E0,1.0594141E1,2.6452782E0,1.4672186E0,1.7390078E0,8.855133E0,3.1349282E0,5.720205E0,1.747411E0,1.3875172E0,2.6924741E0,3.0277307E0],"tree_param":{"num_deleted":"0","num_feature":"18","num_nodes":"13","size_leaf_vector":"1"}},{"base_weights":[-4.6379987E-2,5.315024E-1,-2.9499033E-1,3.6273234E-2,1.8307765E-3,-1.6766751E-1,-3.230164E-2,-3.3347305E-2,-2.9149657E-2,-9.174702E-3,1.8153984E-2],"categories":[],"categories_nodes":[],"categories_segments":[],"categories_sizes":[],"default_left":[0,0,0,0,0,1,0,1,0,0,0],"id":85,"left_children":[1,3,5,-1,-1,7,-1,9,-1,-1,-1],"loss_changes":[2.3830125E0,4.5511508E-1,4.0468198E-1,0E0,0E0,5.257734E-1,0E0,5.693207E-1,0E0,0E0,0E0],"parents":[2147483647,0,0,1,1,2,2,5,5,7,7],"right_children":[2,4,6,-1,-1,8,-1,10,-1,-1,-1],"split_conditions":[1E0,3.694E2,4.5E0,3.6273234E-2,1.8307765E-3,9.66E1,-3.230164E-2,9.08E1,-2.9149657E-2,-9.174702E-3,1.8153984E-2],"split_indices":[11,6,5,0,0,6,0,6,0,0,0],"split_type":[0,0,0,0,0,0,0,0,0,0,0],"sum_hessian":[1.44956665E1,4.0180397E0,1.0477627E1,2.551934E0,1.4661056E0,8.773215E0,1.7044116E0,7.4455476E0,1.3276677E0,5.7897935E0,1.655754E0],"tree_param":{"num_deleted":"0","num_feature":"18","num_nodes":"11","size_leaf_vector":"1"}},{"base_weights":[-4.55581E-2,5.222431E-1,-2.8750414E-1,3.589469E-2,1.7771538E-3,-3.1989343E-2,-1.6132559E-1,1.4040062E-1,-3.2603952E-1,-1.4125282E-2,2.3044087E-2,-1.0579147E-3,-2.6388353E-2],"categories":[],"categories_nodes":[],"categories_segments":[],"categories_sizes":[],"default_left":[0,0,0,0,0,0,0,0,1,0,0,0,0],"id":86,"left_children":[1,3,5,-1,-1,-1,7,9,11,-1,-1,-1,-1],"loss_changes":[2.252559E0,4.4371963E-1,4.0246326E-1,0E0,0E0,0E0,5.285109E-1,6.898246E-1,3.9378256E-1,0E0,0E0,0E0,0E0],"parents":[2147483647,0,0,1,1,2,2,6,6,7,7,8,8],"right_children":[2,4,6,-1,-1,-1,8,10,12,-1,-1,-1,-1],"split_conditions":[1E0,3.694E2,3.5441252E-3,3.589469E-2,1.7771538E-3,-3.1989343E-2,5.9403E4,7.99E1,7.8E1,-1.4125282E-2,2.3044087E-2,-1.0579147E-3,-2.6388353E-2],"split_indices":[11,6,9,0,0,0,0,6,6,0,0,0,0],"split_type":[0,0,0,0,0,0,0,0,0,0,0,0,0],"sum_hessian":[1.4303931E1,3.927747E0,1.0376184E1,2.462723E0,1.465024E0,1.6629212E0,8.7132635E0,3.1290388E0,5.5842247E0,1.4000418E0,1.728997E0,2.66355E0,2.9206748E0],"tree_param":{"num_deleted":"0","num_feature":"18","num_nodes":"13","size_leaf_vector":"1"}},{"base_weights":[-4.4755515E-2,5.1307434E-1,-2.8072867E-1,3.551497E-2,1.7250971E-3,-1.5529679E-1,-3.1695597E-2,-2.4722068E-2,-2.8487494E-2,-1.51343485E-2,9.244328E-3],"categories":[],"categories_nodes":[],"categories_segments":[],"categories_sizes":[],"default_left":[0,0,0,0,0,1,0,0,0,0,0],"id":87,"left_children":[1,3,5,-1,-1,7,-1,9,-1,-1,-1],"loss_changes":[2.1312454E0,4.324566E-1,4.001661E-1,0E0,0E0,5.070621E-1,0E0,5.4352945E-1,0E0,0E0,0E0],"parents":[2147483647,0,0,1,1,2,2,5,5,7,7],"right_children":[2,4,6,-1,-1,8,-1,10,-1,-1,-1],"split_conditions":[1E0,3.694E2,4.5E0,3.551497E-2,1.7250971E-3,9.66E1,-3.1695597E-2,8.33801E-3,-2.8487494E-2,-1.51343485E-2,9.244328E-3],"split_indices":[11,6,5,0,0,6,0,9,0,0,0],"split_type":[0,0,0,0,0,0,0,0,0,0,0],"sum_hessian":[1.4096615E1,3.8414083E0,1.0255207E1,2.3774357E0,1.4639726E0,8.629997E0,1.6252091E0,7.3682556E0,1.2617419E0,2.9767237E0,4.391532E0],"tree_param":{"num_deleted":"0","num_feature":"18","num_nodes":"11","size_leaf_vector":"1"}},{"base_weights":[-4.498192E-2,5.0400573E-1,-2.7513415E-1,3.5134505E-2,1.6745595E-3,-3.1333726E-2,-1.5169398E-1,1.3899986E-1,-3.128724E-1,-1.1871139E-2,2.5368908E-2,-8.090368E-4,-2.5695909E-2],"categories":[],"categories_nodes":[],"categories_segments":[],"categories_sizes":[],"default_left":[0,0,0,0,0,0,0,0,1,0,0,0,0],"id":88,"left_children":[1,3,5,-1,-1,-1,7,9,11,-1,-1,-1,-1],"loss_changes":[2.023176E0,4.2134404E-1,3.8904345E-1,0E0,0E0,0E0,4.92164E-1,6.901158E-1,3.7749225E-1,0E0,0E0,0E0,0E0],"parents":[2147483647,0,0,1,1,2,2,6,6,7,7,8,8],"right_children":[2,4,6,-1,-1,-1,8,10,12,-1,-1,-1,-1],"split_conditions":[1E0,3.694E2,3.5441252E-3,3.5134505E-2,1.6745595E-3,-3.1333726E-2,5.9403E4,5.7112E4,7.8E1,-1.1871139E-2,2.5368908E-2,-8.090368E-4,-2.5695909E-2],"split_indices":[11,6,9,0,0,0,0,0,6,0,0,0,0],"split_type":[0,0,0,0,0,0,0,0,0,0,0,0,0],"sum_hessian":[1.3914886E1,3.7588742E0,1.0156013E1,2.295923E0,1.4629511E0,1.5799075E0,8.576105E0,3.1080945E0,5.468011E0,1.7130886E0,1.3950058E0,2.6450632E0,2.8229477E0],"tree_param":{"num_deleted":"0","num_feature":"18","num_nodes":"13","size_leaf_vector":"1"}},{"base_weights":[-4.3798737E-2,4.9504077E-1,-2.6793206E-1,3.4753483E-2,1.6254949E-3,-1.4388594E-1,-3.1173388E-2,-1.7397678E-2,-2.7801756E-2,-8.359903E-3,1.8348578E-2],"categories":[],"categories_nodes":[],"categories_segments":[],"categories_sizes":[],"default_left":[0,0,0,0,0,1,0,1,0,0,0],"id":89,"left_children":[1,3,5,-1,-1,7,-1,9,-1,-1,-1],"loss_changes":[1.9122844E0,4.1039014E-1,3.9787757E-1,0E0,0E0,4.8537648E-1,0E0,5.391686E-1,0E0,0E0,0E0],"parents":[2147483647,0,0,1,1,2,2,5,5,7,7],"right_children":[2,4,6,-1,-1,8,-1,10,-1,-1,-1],"split_conditions":[1E0,3.694E2,4.5E0,3.4753483E-2,1.6254949E-3,9.66E1,-3.1173388E-2,9.08E1,-2.7801756E-2,-8.359903E-3,1.8348578E-2],"split_indices":[11,6,5,0,0,6,0,6,0,0,0],"split_type":[0,0,0,0,0,0,0,0,0,0,0],"sum_hessian":[1.3735608E1,3.6799476E0,1.005566E1,2.2179892E0,1.4619583E0,8.496084E0,1.5595756E0,7.298418E0,1.1976666E0,5.6582375E0,1.6401803E0],"tree_param":{"num_deleted":"0","num_feature":"18","num_nodes":"11","size_leaf_vector":"1"}},{"base_weights":[-4.2948555E-2,4.8618507E-1,-2.6114953E-1,3.4372196E-2,1.5778728E-3,-3.0789107E-2,-1.3922869E-1,1.4040963E-1,-2.980483E-1,-1.1328431E-2,2.4590792E-2,-3.764984E-4,-2.5004232E-2],"categories":[],"categories_nodes":[],"categories_segments":[],"categories_sizes":[],"default_left":[0,0,0,0,0,0,0,0,1,0,0,0,0],"id":90,"left_children":[1,3,5,-1,-1,-1,7,9,11,-1,-1,-1,-1],"loss_changes":[1.8095722E0,3.996042E-1,3.8852948E-1,0E0,0E0,0E0,4.6175575E-1,6.4074135E-1,3.6896604E-1,0E0,0E0,0E0,0E0],"parents":[2147483647,0,0,1,1,2,2,6,6,7,7,8,8],"right_children":[2,4,6,-1,-1,-1,8,10,12,-1,-1,-1,-1],"split_conditions":[1E0,3.694E2,3.5441252E-3,3.4372196E-2,1.5778728E-3,-3.0789107E-2,5.9403E4,5.7112E4,7.8E1,-1.1328431E-2,2.4590792E-2,-3.764984E-4,-2.5004232E-2],"split_indices":[11,6,9,0,0,0,0,0,6,0,0,0,0],"split_type":[0,0,0,0,0,0,0,0,0,0,0,0,0],"sum_hessian":[1.3573375E1,3.6044621E0,9.968912E0,2.1434684E0,1.4609938E0,1.5141153E0,8.454797E0,3.104511E0,5.3502855E0,1.6923835E0,1.4121276E0,2.620051E0,2.7302346E0],"tree_param":{"num_deleted":"0","num_feature":"18","num_nodes":"13","size_leaf_vector":"1"}},{"base_weights":[-4.178959E-2,-1.8421113E-1,3.676579E-2,-3.988111E-2,-2.5416777E-2,2.7598632E-2,-1.8317692E-1,-2.541404E-2,2.502379E-3],"categories":[],"categories_nodes":[],"categories_segments":[],"categories_sizes":[],"default_left":[0,0,0,0,0,0,0,0,0],"id":91,"left_children":[1,3,-1,5,-1,-1,7,-1,-1],"loss_changes":[1.7300688E0,5.867549E-1,0E0,9.5457333E-1,0E0,0E0,6.966568E-1,0E0,0E0],"parents":[2147483647,0,0,1,1,3,3,6,6],"right_children":[2,4,-1,6,-1,-1,8,-1,-1],"split_conditions":[1E0,1.007E2,3.676579E-2,1E0,-2.5416777E-2,2.7598632E-2,9.217766E-3,-2.541404E-2,2.502379E-3],"split_indices":[14,6,0,11,0,0,9,0,0],"split_type":[0,0,0,0,0,0,0,0,0],"sum_hessian":[1.340789E1,1.1975982E1,1.4319082E0,9.063237E0,2.912745E0,1.2107022E0,7.852535E0,2.7875123E0,5.065023E0],"tree_param":{"num_deleted":"0","num_feature":"18","num_nodes":"9","size_leaf_vector":"1"}},{"base_weights":[-3.9016116E-2,-1.7831875E-1,3.620042E-2,-3.779019E-2,-2.4679227E-2,2.7253294E-2,-1.7782839E-1,-2.4908608E-2,2.39485E-3],"categories":[],"categories_nodes":[],"categories_segments":[],"categories_sizes":[],"default_left":[0,0,0,0,0,0,0,0,0],"id":92,"left_children":[1,3,-1,5,-1,-1,7,-1,-1],"loss_changes":[1.6440886E0,5.508772E-1,0E0,9.11074E-1,0E0,0E0,6.5992016E-1,0E0,0E0],"parents":[2147483647,0,0,1,1,3,3,6,6],"right_children":[2,4,-1,6,-1,-1,8,-1,-1],"split_conditions":[1E0,1.007E2,3.620042E-2,1E0,-2.4679227E-2,2.7253294E-2,9.217766E-3,-2.4908608E-2,2.39485E-3],"split_indices":[14,6,0,11,0,0,9,0,0],"split_type":[0,0,0,0,0,0,0,0,0],"sum_hessian":[1.3253131E1,1.185509E1,1.3980409E0,8.974574E0,2.8805158E0,1.1782575E0,7.7963166E0,2.7237937E0,5.072523E0],"tree_param":{"num_deleted":"0","num_feature":"18","num_nodes":"9","size_leaf_vector":"1"}},{"base_weights":[-3.631293E-2,-1.7256282E-1,3.5646264E-2,9.8352626E-2,-3.1668818E-1,-1.9291438E-1,2.196298E-2,-5.0297284E-1,-3.796921E-2,6.233261E-3,-2.09555E-2,-3.472672E-3,-2.9911226E-2,1.12047205E-2,-2.1241628E-2],"categories":[],"categories_nodes":[],"categories_segments":[],"categories_sizes":[],"default_left":[0,0,0,0,0,0,0,0,0,0,0,0,0,0,0],"id":93,"left_children":[1,3,-1,5,7,9,-1,11,13,-1,-1,-1,-1,-1,-1],"loss_changes":[1.5628799E0,5.285711E-1,0E0,5.9977204E-1,4.2496306E-1,3.0309176E-1,0E0,1.6676438E-1,5.522268E-1,0E0,0E0,0E0,0E0,0E0,0E0],"parents":[2147483647,0,0,1,1,3,3,4,4,5,5,7,7,8,8],"right_children":[2,4,-1,6,8,10,-1,12,14,-1,-1,-1,-1,-1,-1],"split_conditions":[1E0,5.9488E4,3.5646264E-2,5.7261E4,7.2348E4,5.2079E4,2.196298E-2,5.455E3,8.4282E4,6.233261E-3,-2.09555E-2,-3.472672E-3,-2.9911226E-2,1.12047205E-2,-2.1241628E-2],"split_indices":[14,0,0,0,0,0,0,1,0,0,0,0,0,0,0],"split_type":[0,0,0,0,0,0,0,0,0,0,0,0,0,0,0],"sum_hessian":[1.3104667E1,1.1739505E1,1.3651614E0,4.186897E0,7.5526085E0,2.4919324E0,1.6949643E0,4.0447025E0,3.5079062E0,1.2232895E0,1.2686428E0,1.0400906E0,3.0046117E0,2.3420959E0,1.1658101E0],"tree_param":{"num_deleted":"0","num_feature":"18","num_nodes":"15","size_leaf_vector":"1"}},{"base_weights":[-3.4776147E-2,4.580281E-1,-2.360988E-1,3.3396445E-2,7.7092694E-4,-1.1185106E-1,-3.0242462E-2,8.10064E-3,-2.6336545E-2,-7.05902E-3,1.8660836E-2],"categories":[],"categories_nodes":[],"categories_segments":[],"categories_sizes":[],"default_left":[0,0,0,0,0,1,0,1,0,0,0],"id":94,"left_children":[1,3,5,-1,-1,7,-1,9,-1,-1,-1],"loss_changes":[1.4999269E0,3.9930397E-1,4.1889197E-1,0E0,0E0,4.606151E-1,0E0,4.9408165E-1,0E0,0E0,0E0],"parents":[2147483647,0,0,1,1,2,2,5,5,7,7],"right_children":[2,4,6,-1,-1,8,-1,10,-1,-1,-1],"split_conditions":[1E0,3.694E2,4.5E0,3.3396445E-2,7.7092694E-4,9.66E1,-3.0242462E-2,9.08E1,-2.6336545E-2,-7.05902E-3,1.8660836E-2],"split_indices":[11,6,5,0,0,6,0,6,0,0,0],"split_type":[0,0,0,0,0,0,0,0,0,0,0],"sum_hessian":[1.3028322E1,3.4088733E0,9.619449E0,1.966989E0,1.4418843E0,8.169964E0,1.4494843E0,7.0981836E0,1.0717802E0,5.4735856E0,1.624598E0],"tree_param":{"num_deleted":"0","num_feature":"18","num_nodes":"11","size_leaf_vector":"1"}},{"base_weights":[-3.4152925E-2,-1.6652134E-1,3.4976985E-2,9.640354E-2,-3.0774716E-1,-1.8831481E-1,2.12027E-2,-4.9219078E-1,-3.399357E-2,6.0824878E-3,-2.0541951E-2,-3.6635238E-3,-2.910654E-2,1.0807156E-2,-2.0643955E-2],"categories":[],"categories_nodes":[],"categories_segments":[],"categories_sizes":[],"default_left":[0,0,0,0,0,0,0,0,0,0,0,0,0,0,0],"id":95,"left_children":[1,3,-1,5,7,9,-1,11,13,-1,-1,-1,-1,-1,-1],"loss_changes":[1.4656858E0,4.9666724E-1,0E0,5.6087595E-1,4.0843862E-1,2.8803572E-1,0E0,1.4410472E-1,5.122898E-1,0E0,0E0,0E0,0E0,0E0,0E0],"parents":[2147483647,0,0,1,1,3,3,4,4,5,5,7,7,8,8],"right_children":[2,4,-1,6,8,10,-1,12,14,-1,-1,-1,-1,-1,-1],"split_conditions":[1E0,5.9488E4,3.4976985E-2,5.7261E4,7.2348E4,5.2079E4,2.12027E-2,5.455E3,8.4282E4,6.0824878E-3,-2.0541951E-2,-3.6635238E-3,-2.910654E-2,1.0807156E-2,-2.0643955E-2],"split_indices":[14,0,0,0,0,0,0,1,0,0,0,0,0,0,0],"split_type":[0,0,0,0,0,0,0,0,0,0,0,0,0,0,0],"sum_hessian":[1.2892392E1,1.1576811E1,1.3155819E0,4.156288E0,7.420522E0,2.4513748E0,1.7049135E0,3.9567184E0,3.463804E0,1.213856E0,1.2375188E0,1.020079E0,2.9366393E0,2.345112E0,1.1186919E0],"tree_param":{"num_deleted":"0","num_feature":"18","num_nodes":"15","size_leaf_vector":"1"}},{"base_weights":[-3.2725397E-2,-1.616663E-1,3.444546E-2,9.2718825E-2,-2.9918888E-1,3.0407012E-1,-1.5723417E-2,-4.7862825E-1,-3.4571808E-2,-3.9846613E-3,3.0542323E-2,-3.5718144E-3,-2.8346961E-2,1.0381246E-2,-2.0265678E-2],"categories":[],"categories_nodes":[],"categories_segments":[],"categories_sizes":[],"default_left":[0,0,0,0,0,0,0,0,0,0,0,0,0,0,0],"id":96,"left_children":[1,3,-1,5,7,9,-1,11,13,-1,-1,-1,-1,-1,-1],"loss_changes":[1.3974353E0,4.6630165E-1,0E0,5.3989625E-1,3.8106078E-1,5.086326E-1,0E0,1.3613772E-1,4.8477194E-1,0E0,0E0,0E0,0E0,0E0,0E0],"parents":[2147483647,0,0,1,1,3,3,4,4,5,5,7,7,8,8],"right_children":[2,4,-1,6,8,10,-1,12,14,-1,-1,-1,-1,-1,-1],"split_conditions":[1E0,5.9488E4,3.444546E-2,4.3E0,7.2348E4,5.7261E4,-1.5723417E-2,5.455E3,8.4282E4,-3.9846613E-3,3.0542323E-2,-3.5718144E-3,-2.8346961E-2,1.0381246E-2,-2.0265678E-2],"split_indices":[14,0,0,5,0,0,0,1,0,0,0,0,0,0,0],"split_type":[0,0,0,0,0,0,0,0,0,0,0,0,0,0,0],"sum_hessian":[1.2821457E1,1.153616E1,1.2852969E0,4.1624246E0,7.373736E0,2.906857E0,1.2555674E0,3.9121268E0,3.4616091E0,1.6202372E0,1.2866199E0,1.0196328E0,2.892494E0,2.3599105E0,1.1016988E0],"tree_param":{"num_deleted":"0","num_feature":"18","num_nodes":"15","size_leaf_vector":"1"}},{"base_weights":[-3.1035265E-2,4.444319E-1,-2.2447585E-1,3.289756E-2,4.0382656E-4,-2.9548516E-2,-1.0371268E-1,1.382222E-2,-2.5932172E-2,1.3924444E-2,-8.358772E-3],"categories":[],"categories_nodes":[],"categories_segments":[],"categories_sizes":[],"default_left":[0,0,0,0,0,0,0,0,0,0,0],